tree
num_class=1
num_tree_per_iteration=1
label_index=0
max_feature_idx=49
objective=regression
boost_from_average
feature_names=Distance day_of_month days_distance discount_man discount_jian is_man_jian discount_rate total_sales sales_use_coupon total_coupon merchant_min_distance merchant_max_distance merchant_coupon_transfer_rate coupon_rate Count_merchant user_min_distance user_max_distance user_mean_distance user_median_distance buy_use_coupon buy_total Coupon_received avg_user_date_datereceived_gap min_user_date_datereceived_gap max_user_date_datereceived_gap buy_use_coupon_rate user_coupon_transfer_rate user_merchant_buy_total user_merchant_received user_merchant_buy_use_coupon user_merchant_any user_merchant_buy_common user_merchant_coupon_transfer_rate user_merchant_coupon_buy_rate user_merchant_rate user_merchant_common_buy_rate this_month_user_receive_same_coupon_count this_month_user_receive_all_coupon_count this_month_user_receive_same_coupon_lastone this_month_user_receive_same_coupon_firstone this_day_user_receive_all_coupon_count this_day_user_receive_same_coupon_count is_weekend weekday1 weekday2 weekday3 weekday4 weekday5 weekday6 weekday7
feature_infos=[0:10] [1:31] none [0:300] [0:100] [0:1] [0.33333333333333337:0.98999999999999999] [0:14962] [0:2414] [0:100369] [0:10] [0:10] [0:1] [0:1] [0:9] [0:10] [0:10] [0:10] [0:10] [0:75] [0:130] [0:89] [0:64] [0:64] [0:64] [0:1] [0:1] [0:79] [0:75] [0:75] [0:79] [0:66] [0:1] [0:1] [0:1] [0:1] [1:53] [1:57] [-1:1] [-1:1] [1:12] [1:6] [0:1] [0:1] [0:1] [0:1] [0:1] [0:1] [0:1] [0:1]

Tree=0
num_leaves=2
split_feature=0
split_gain=-1
threshold=0
decision_type=0
default_value=0
left_child=-1
right_child=-2
leaf_parent=0 0
leaf_value=0.080460735435960468 0.080460735435960468
leaf_count=0 0
internal_value=0
internal_count=0
shrinkage=1
has_categorical=0


Tree=1
num_leaves=31
split_feature=36 38 27 13 6 27 3 4 4 32 13 9 13 6 6 1 1 9 9 9 6 1 1 29 6 6 9 9 9 6
split_gain=3398.524075926407 678.56209160025628 525.95537506570827 297.27633998750434 312.39583219753331 95.769906380356701 87.212519333555292 80.218436624122887 78.825679019552808 69.574313220393122 66.040527691668757 65.164172217967689 52.554048868317793 44.613894241175203 49.281815186501774 43.858596808813218 49.876001075308523 41.913848937571345 37.124763600037227 33.758066952640092 31.781494143325773 26.426183662945988 34.158966496724929 26.189021304801429 25.695488331796696 25.307895301240595 25.174112440088351 32.143804949211116 25.973254892535177 46.746413900704518
threshold=1.5 9.9999996826552254e-21 1.5 0.027621678505656406 0.84166666666666667 6.5 25 7.5 7.5 0.60681818181818181 0.15090582269501412 199 0.056731274011501659 0.84166666666666667 0.68333333333333335 19.5 24.5 1.5 118.5 30.5 0.84166666666666667 22.5 25.5 4.5 0.84166666666666667 0.8833333333333333 185 1700 44.5 0.85833333333333339
decision_type=0 0 0 0 0 0 0 0 0 0 0 0 0 0 0 0 0 0 0 0 0 0 0 0 0 0 0 0 0 0
default_value=0 -9.9999996826552254e-21 0 1.7976931348623157e+308 0 0 1.7976931348623157e+308 0 1.7976931348623157e+308 0 1.7976931348623157e+308 0 1.7976931348623157e+308 0 0 0 0 0 0 0 0 0 0 0 0 0 0 0 0 0
left_child=2 3 7 17 8 12 11 10 15 13 18 19 -4 14 -3 -5 -17 -2 -1 -6 -14 -16 -23 -8 -11 -12 28 -28 29 -19
right_child=1 9 5 4 6 -7 23 -9 -10 24 25 -13 20 -15 21 16 -18 26 -20 -21 -22 22 -24 -25 -26 -27 27 -29 -30 -31
leaf_parent=18 17 14 12 15 19 5 23 7 8 24 25 11 20 13 21 16 16 29 18 19 20 22 22 23 24 25 27 27 28 29
leaf_value=-0.00046812723143004325 0.017880286692762662 -0.0021787744244468996 0.00085785780965876219 0.026099198648317942 0.019937030000987149 0.01145289455171479 0.01157147006885989 -0.0032467079002508254 0.018247705790738873 0.022063919982832414 0.0018022060285783508 0.031651382137176602 0.0074763799218358767 0.0021712038549476262 0.006470236887512186 0.038811854551607211 0.024584881742966587 0.0313360795522757 -0.0024052450788823268 0.010903553916278126 0.0027031537930348091 0.0180985675712645 0.0035994678607274748 0.030450647734105586 0.0097014531649040944 -0.00073183626669833044 0.034490477067191862 0.00027383829874452206 -0.0016315955574910846 0.0043222870699150106
leaf_count=30268 662 976 10285 1718 6611 4591 5534 113032 1145 736 14935 1075 8570 8855 2230 2889 783 181 135277 1226 5880 1546 551 190 980 28956 148 128 1589 1390
internal_value=0 0.27194429433166445 -0.031804418390722893 0.37373215328071852 0.42145226326431517 0.096413030547937734 0.34028264097553779 -0.043464815414846716 0.60324240738344992 0.10991346355280288 -0.031877873668193453 0.40214698885850059 0.07179315771620659 0.086865160069061989 0.15940349491732134 0.6538620908428433 0.7155632364070591 0.12720154116194735 -0.041021307025508359 0.37047712756892437 0.1106811352708348 0.20518752260498233 0.2857767501805985 0.2439627478356069 0.30007539870595179 0.0026086879306923124 0.082810512185530413 0.37243781943360099 0.057513949906901465 0.14869267251615234
internal_count=392937 41143 351794 25269 21171 29326 14636 322468 6535 15874 209436 8912 24735 14158 5303 5390 3672 4098 165545 7837 14450 4327 2097 5724 1716 43891 3436 276 3160 1571
shrinkage=0.05
has_categorical=0


Tree=2
num_leaves=31
split_feature=38 38 27 13 8 3 27 3 13 32 8 8 7 3 4 7 4 7 9 7 8 3 4 3 7 7 9 1 1 7
split_gain=3067.1679381150116 612.40228927046201 474.67470078312675 268.42735572477795 133.85974914162171 159.95373819159022 87.322885761834812 74.844569365988491 87.845550730708794 62.812667866299222 47.487913051699465 46.135334856419824 56.588372489406908 40.977370971360187 111.59657447538302 53.750179443391971 36.39913697660235 33.571581319033598 31.484158008784561 41.64052963770456 29.102839157880339 29.052357485628789 29.806088218003453 43.878436020884664 28.808059074589494 28.088885659736441 25.917157288405917 23.036474240261896 25.59212026306821 22.996488757165253
threshold=-9.9999996826552254e-21 9.9999996826552254e-21 1.5 0.02558893998243969 50.5 40 5.5 25 0.077129637280013236 0.52272727272727271 309.5 11.5 3160.5 25 3 134.5 3 386.5 19716 10615 199 40 3 15 8147 2658.5 25.5 22.5 25.5 8147
decision_type=0 0 0 0 0 0 0 0 0 0 0 0 0 0 0 0 0 0 0 0 0 0 0 0 0 0 0 0 0 0
default_value=0 -9.9999996826552254e-21 0 1.7976931348623157e+308 0 1.7976931348623157e+308 0 0 1.7976931348623157e+308 0 0 0 0 1.7976931348623157e+308 0 0 1.7976931348623157e+308 0 0 0 0 0 1.7976931348623157e+308 1.7976931348623157e+308 0 0 1.7976931348623157e+308 0 0 0
left_child=2 3 7 11 13 29 10 8 -1 21 25 17 -13 14 15 -5 -10 -2 19 -9 -7 22 -3 -24 -8 -4 -17 -25 -29 -6
right_child=1 9 6 4 5 20 24 18 16 -11 -12 12 -14 -15 -16 26 -18 -19 -20 -21 -22 -23 23 27 -26 -27 -28 28 -30 -31
leaf_parent=8 17 22 25 15 29 20 24 19 16 9 10 12 12 13 14 26 16 17 18 19 20 21 23 27 24 25 26 28 28 29
leaf_value=-0.0020782309317179067 0.00791102986776414 0.0030563352594183257 0.003344460470374479 0.020291394245893195 0.030319359677825192 0.02325232552941002 0.008927215118099437 -0.0023034509493281589 -9.363298107326439e-05 0.014222836175196835 0.007493560272487332 -0.0023364240533217443 0.031875978287022849 0.014849554610968442 0.03465764274485772 0.019941208449288692 0.0033314894418546501 0.024199364588166457 -0.0036138650156776701 0.0039371084336707902 0.0058469000301211013 -0.00010128451415834211 -0.0023554945429624468 0.0067154968536598568 0.021953979069630827 -0.00086314137654687441 0.0075008048723603409 0.017581535491421923 0.0042404785407216929 0.041633892914121472
leaf_count=50129 1753 6216 12391 5946 3463 336 5631 186182 19614 1727 5011 1720 130 6963 1129 580 12831 386 51000 2712 842 3162 802 2014 459 5834 1505 1478 475 516
internal_value=0 0.25834707603095047 -0.030214199154484381 0.35504554215896927 0.39966924092662348 0.53990654454620535 0.091592374102194771 -0.041291576033199086 -0.015324391367360414 0.10441778658979468 0.063656286299767356 0.1169928197283648 0.0013538141145899489 0.35481383096779545 0.39876794995308962 0.35738324597078991 0.025217952681563266 0.21700785497169509 -0.050229750004190284 -0.044277072493112545 0.21622871312807695 0.082439470052668551 0.10675251848069874 0.16622202056187657 0.19818070516577496 0.039951322795759338 0.21922889432604079 0.20935088190791706 0.28673565553675784 0.63573275349582969
internal_count=392937 41143 351794 25269 21280 5157 29326 322468 82574 15874 23236 3989 1850 16123 9160 8031 32445 2139 239894 188894 1178 14147 10985 4769 6090 18225 2085 3967 1953 3979
shrinkage=0.05
has_categorical=0


Tree=3
num_leaves=31
split_feature=38 38 27 13 8 3 4 7 8 13 7 8 7 39 27 34 8 27 22 7 7 8 7 9 3 4 4 3 3 12
split_gain=2768.1190675367234 552.69307651449299 428.85456548400157 242.49130727675538 119.72732001484928 144.35824943614739 82.900979615223946 65.922577916955163 56.598321978685874 54.779927315078908 54.167947180662907 43.329337542694503 51.07100758406019 41.174260271455978 39.913924445876773 33.224612603976908 62.167140666006752 32.861795806095984 30.468716718890278 30.891510523915883 29.56403560793774 26.265312588882409 26.247842370317528 24.725450148175383 23.128751288726789 53.75245277601357 29.121707243844071 22.824663179626747 22.618318767813037 21.828455047574835
threshold=-9.9999996826552254e-21 9.9999996826552254e-21 2.5 0.027621678505656406 50.5 40 7.5 922.5 59.5 0.16158951204917585 8147 11.5 3160.5 9.9999996826552254e-21 6.5 0.98559286898839138 279.5 3.5 4.4142857142857146 82.5 386.5 199 1602 6.5 40 3 7.5 40 25 0.086845607808340719
decision_type=0 0 0 0 0 0 0 0 0 0 0 0 0 0 0 0 0 0 0 0 0 0 0 0 0 0 0 0 0 0
default_value=0 -9.9999996826552254e-21 0 1.7976931348623157e+308 0 1.7976931348623157e+308 0 0 0 0 0 0 0 -9.9999996826552254e-21 0 0 0 0 1.7976931348623157e+308 0 0 0 0 1.7976931348623157e+308 1.7976931348623157e+308 0 0 0 1.7976931348623157e+308 0
left_child=2 3 6 11 13 29 7 27 22 15 14 20 -13 18 -4 -9 -17 -10 -5 28 -2 -7 -3 -21 25 -15 -26 -1 -20 -6
right_child=1 8 10 4 5 21 -8 9 17 -11 -12 12 -14 24 -16 16 -18 -19 19 23 -22 -23 -24 -25 26 -27 -28 -29 -30 -31
leaf_parent=27 20 22 14 18 29 21 6 15 17 9 10 12 12 25 14 16 16 17 28 23 20 21 22 23 26 25 26 27 28 29
leaf_value=0.0003669356114783773 0.0077850934096024837 0.0040499008099575979 0.0038499167768619594 0.022783816379582707 0.01458653267824425 0.022089709332656294 -0.0029218492440480164 -0.0023632191679473858 0.0073565932511663852 0.0033410693247894127 0.015321864038107386 -0.0022196029938844055 0.03028217967886191 0.017942819581797134 0.0095089682774135761 -0.0018239326400582003 0.004114419600051461 0.017716584707106169 0.01880781314355302 0.027619759942505769 0.022989396745136365 0.0055545550299865906 -0.0039643757481981554 0.0071021566722653737 0.0095214381795422996 0.028091659848321779 0.021683634028715246 -0.0022266844017002924 0.011041072737284812 0.031075852165230556
leaf_count=60199 1862 11025 11646 881 212 336 114843 121562 2646 4902 1494 1720 130 5035 4254 17080 5940 1077 2288 157 386 842 1126 2268 1203 1761 833 9874 1588 3767
internal_value=0 0.24542972292358381 -0.02870348867033632 0.33729326661347853 0.38039248067802761 0.51291121855820243 -0.03666650127828941 -0.025279081845606621 0.099196896572320753 -0.037142817121804443 0.12438558894835479 0.11463502821412071 0.0012861211759013099 0.33771737569188659 0.10727959979302104 -0.040667685543415981 -0.0058324214317014584 0.20707121929701636 0.28148715080295522 0.25713218099644136 0.20791593480696138 0.20541727794603096 0.066144793576349906 0.16861025685502082 0.38344263329518202 0.41145235311136902 0.28994849976335152 2.9362263067985389e-05 0.31251547976913097 0.60394611728681213
internal_count=392937 41143 351794 25269 21171 5157 334400 219557 15874 149484 17394 4098 1850 16014 15900 144582 23020 3723 7182 6301 2248 1178 12151 2425 8832 6796 2036 70073 3876 3979
shrinkage=0.05
has_categorical=0


Tree=4
num_leaves=31
split_feature=36 38 27 13 6 27 4 4 6 6 22 13 27 13 1 1 13 12 0 4 6 4 12 22 13 30 19 1 6 4
split_gain=2498.227397913523 498.80546702603169 392.23344299149596 218.87696461313044 250.48988918614623 71.469285996040867 61.110813509342165 58.881733561786177 56.712002310927573 53.348645777399668 49.397874792866332 49.04496228117651 42.482355229189039 38.593865557847778 37.7102270653088 42.118930120920822 36.828486307303443 35.932249741168626 30.039982864188346 29.633448866354115 29.422619474810745 27.665044025901224 26.761862612811086 26.725990043204263 25.553795049592473 24.333027784029241 21.984646277850903 21.976013444530501 20.437745416747546 19.440579788248954
threshold=1.5 9.9999996826552254e-21 1.5 0.02558893998243969 0.84166666666666667 3.5 7.5 7.5 0.84166666666666667 0.68333333333333335 5.5499999999999998 0.15090582269501412 1.5 0.030418690724034241 19.5 24.5 0.008547632963179428 0.1146543330087634 9.9999996826552254e-21 3 0.95833333333333337 7.5 0.19542919266401965 8.5500000000000007 0.030418690724034241 1.5 3.5 13.5 0.8833333333333333 15
decision_type=0 0 0 0 0 0 0 0 0 0 0 0 0 0 0 0 0 0 0 0 0 0 0 0 0 0 0 0 0 0
default_value=0 -9.9999996826552254e-21 0 1.7976931348623157e+308 0 0 0 1.7976931348623157e+308 0 0 1.7976931348623157e+308 1.7976931348623157e+308 0 1.7976931348623157e+308 0 0 0 0 0 1.7976931348623157e+308 0 0 0 1.7976931348623157e+308 1.7976931348623157e+308 0 0 0 0 0
left_child=2 3 6 16 7 24 11 14 9 -3 -6 18 -11 -7 -5 -16 22 27 -1 20 25 -21 -2 -15 -4 -12 -10 -18 -13 -9
right_child=1 8 5 4 10 13 -8 29 26 12 19 28 -14 23 15 -17 17 -19 -20 21 -22 -23 -24 -25 -26 -27 -28 -29 -30 -31
leaf_parent=18 22 9 24 14 10 13 6 29 26 12 25 28 12 23 15 15 27 17 18 21 20 21 22 23 24 25 26 27 28 29
leaf_value=-0.0011030942679139683 -0.00010460964524684174 -0.0017062613163355866 -0.0012413745149083082 0.022236466046956144 0.022024011885992005 0.0014391717527410847 -0.0028038321569319653 0.0098560053493502078 0.0019773855546950398 0.0070498559715939163 0.018756607225197612 0.0016270744498753011 0.016544019538790158 0.013193215932090181 0.033981762525904312 0.020914580636820727 0.027845053146909743 0.00081585143016258365 -0.002450873105456735 0.0064210828597387254 0.0093965215887962805 0.018059777868925885 0.021796703033489927 0.0070703140229995262 0.0032270405753535079 0.01315518608573335 0.016603747156984879 0.0067619164302511123 -0.0006501316439243563 0.022927577037229935
leaf_count=85447 193 1052 4200 1718 1865 2326 113032 618 9571 3078 4027 14935 1909 2394 2903 783 206 2778 80098 2341 2106 653 503 6974 13432 3739 264 309 28956 527
internal_value=0 0.23315823385881537 -0.027268314000011746 0.32042859734370205 0.36072369450318131 0.083456508545476205 -0.0373378903485765 0.52344256016039126 0.094237053633314458 0.17051499610972495 0.28838333395813565 -0.027224639974398331 0.21368353711697008 0.14407464072977311 0.56708890421910252 0.62411922545486087 0.10546753754081449 0.061293339800805695 -0.035104186766295377 0.26633602123346761 0.29276574662972599 0.17919031344727429 0.31446988403197679 0.17270053146418143 0.043252990069797437 0.32119520491997883 0.047399992665846942 0.30390342233829126 0.002494882790282274 0.31744706383438609
internal_count=392937 41143 351794 25269 21280 29326 322468 6549 15874 6039 14731 209436 4987 11694 5404 3686 3989 3293 165545 12866 9872 2994 696 9368 17632 7766 9835 515 43891 1145
shrinkage=0.05
has_categorical=0


Tree=5
num_leaves=31
split_feature=36 38 31 6 6 3 3 31 9 6 3 6 1 1 34 34 9 35 3 3 26 9 9 9 1 1 9 9 19 4
split_gain=2254.6502936608836 450.17196163766516 320.34494057860536 164.46208646080504 238.43063516395523 76.406016460217188 61.806800210804909 58.605247009116141 51.374506169563688 51.182582794280549 48.613055907743274 48.14715416827292 40.554680870831589 43.258719620128204 35.116722140772367 32.855748015330448 30.875642214878823 29.569340344397233 26.097970284148118 26.007554816041942 23.473870321998092 23.415838709438177 21.035558944040798 41.011722726907927 20.599327323535476 29.542320875622067 20.111521348827182 20.061180009645227 19.841142300692606 19.724372489463121
threshold=1.5 9.9999996826552254e-21 1.5 0.84166666666666667 0.68333333333333335 25 25 6.5 185 0.84166666666666667 40 0.68333333333333335 19.5 24.5 0.83602150537634412 0.58477011494252873 52.5 0.86811594202898545 40 7.5 0.51666666666666661 135 295.5 747.5 22.5 25.5 19716 1365 3.5 25
decision_type=0 0 0 0 0 0 0 0 0 0 0 0 0 0 0 0 0 0 0 0 0 0 0 0 0 0 0 0 0 0
default_value=0 -9.9999996826552254e-21 0 0 0 0 0 0 0 0 1.7976931348623157e+308 0 0 0 0 0 1.7976931348623157e+308 0 0 0 0 0 1.7976931348623157e+308 1.7976931348623157e+308 0 0 0 0 0 0
left_child=2 3 6 4 16 8 19 18 17 11 12 -3 -6 -14 -13 26 -2 -5 20 -1 -4 -12 -21 -24 -16 -26 -8 -10 -11 -7
right_child=1 9 7 5 10 29 15 -9 27 28 21 14 13 -15 24 -17 -18 -19 -20 22 -22 -23 23 -25 25 -27 -28 -29 -30 -31
leaf_parent=19 16 11 20 17 12 29 26 7 27 28 21 14 13 13 24 15 16 17 18 22 20 21 23 23 25 25 26 27 28 29
leaf_value=0.002148192871734826 -0.0012536089148669116 -0.0016209483791156866 0.0029523930656845669 0.01685065990110465 0.020609008375863064 0.008957837594679028 -0.0020713565365943309 0.009363584978275958 0.027149006996956406 0.0018785162536455989 0.022446814140907132 0.0061087274041918202 0.032483926322493896 0.019418020483959603 0.0095705667842060221 -0.00036944274543982986 0.017427841763604773 0.011167357602221364 -0.00089622291293391652 -0.0014665110386528487 0.0079891869433569452 0.007414953655535632 0.0054376055566943979 -0.00046665966855006965 0.023016473848956911 0.0049493826038780669 -0.0032142923521399033 0.011724452301859856 0.015773559437895362 -0.0023132019302839245
leaf_count=8003 1130 1052 17063 4212 1755 6220 167292 4130 1096 9571 532 2587 3058 799 1124 23585 275 5012 3787 48739 2676 505 3369 23159 982 294 49991 261 264 414
internal_value=0 0.22150032587873308 -0.025904898265554283 0.30440717373517862 0.42235408465535018 0.24922597010165773 -0.03471933225668191 0.07740335328984517 0.30197744924909914 0.08952520061197472 0.5014465678433383 0.16198924646622931 0.53820261853353435 0.59554495753627201 0.20299936099983013 -0.042838432157610233 0.04805805567532672 0.2752510316690942 0.058115915131274509 -0.011233907074301672 0.072704541405541265 0.30253146999051278 -0.016996654485059541 0.0056633910257481625 0.29012177392219501 0.37707360196263068 -0.046686309255281333 0.4836461859904147 0.045029992384842704 0.16508918974906844
internal_count=392937 41143 351794 25269 8054 17215 324138 27656 10581 15874 6649 6039 5612 3857 4987 240868 1405 9224 23526 83270 19739 1037 75267 26528 2400 1276 217283 1357 9835 6634
shrinkage=0.05
has_categorical=0


Tree=6
num_leaves=31
split_feature=36 38 27 13 6 27 3 3 13 6 6 3 13 27 6 9 9 6 6 9 3 13 9 9 39 22 34 9 13 19
split_gain=2034.821914408526 406.28018399010602 321.59749180854482 184.86266631470971 199.89609026381368 60.589117606768866 57.683805384958873 53.253053447875004 68.652101427660284 46.192279145769859 43.452806983676282 37.307228515101315 36.451161526412058 36.337516663245083 34.45048364391986 33.338122918866361 31.376682785216992 27.35479785765267 25.452495090242493 24.257765449913563 23.868002403320247 23.522492033891012 22.906572086015871 21.518776819714731 21.888568825074572 21.427810888573617 20.418576003118972 20.040656204385925 19.250387300623686 17.90663142697019
threshold=1.5 9.9999996826552254e-21 1.5 0.027621678505656406 0.84166666666666667 5.5 25 25 0.077129637280013236 0.84166666666666667 0.68333333333333335 25 0.069737787237968474 2.5 0.8833333333333333 199 1.5 0.81666666666666665 0.84166666666666667 21.5 125 0.017524257571302555 46.5 19.5 9.9999996826552254e-21 8.5500000000000007 0.98559286898839138 741.5 0.12766572742102922 3.5
decision_type=0 0 0 0 0 0 0 0 0 0 0 0 0 0 0 0 0 0 0 0 0 0 0 0 0 0 0 0 0 0
default_value=0 -9.9999996826552254e-21 0 1.7976931348623157e+308 0 0 0 0 1.7976931348623157e+308 0 0 1.7976931348623157e+308 0 0 0 0 0 0 0 0 0 1.7976931348623157e+308 0 1.7976931348623157e+308 -9.9999996826552254e-21 1.7976931348623157e+308 0 0 0 0
left_child=2 3 7 16 11 12 15 8 -1 10 -3 -5 22 -12 27 23 -2 -13 -14 -19 26 -7 -4 -6 -25 -23 -9 -10 -17 -11
right_child=1 9 5 4 6 21 -8 20 14 29 13 17 18 -15 -16 28 -18 19 -20 -21 -22 25 -24 24 -26 -27 -28 -29 -30 -31
leaf_parent=8 16 10 22 11 23 21 6 26 27 29 13 17 18 13 14 28 16 19 18 19 20 25 22 24 24 25 26 27 28 29
leaf_value=-0.0017510518942572785 0.014706389134429013 -0.0015399009633823492 0.0035233575536536936 0.028938591299015583 0.018366437173650999 0.00052218758976054229 0.0090304862802535225 -0.0019641080569181573 0.0024197099152684907 0.0017845905794502362 0.0068111156369740997 0.014283625075657259 0.0073103890362637008 0.016076182997162184 2.8735515848847614e-05 0.015093251953085703 0.002818522545182698 0.017564092423165586 0.0011637573483479179 0.026595959682859233 -0.0029475762191269734 0.014319736505595019 -0.00040001483281411945 0.0094297830986937049 0.015679656951673775 0.0073641501016728939 -0.00024143652207014453 0.0077948783601764415 0.028093705411985734 0.014984881789000197
leaf_count=50129 662 1052 6296 2187 2341 853 5469 162761 8912 9571 3463 1141 5398 1524 21380 455 3436 1171 2448 2036 57899 1590 9094 2711 2899 3647 19234 2153 761 264
internal_value=0 0.21042530986094943 -0.024609654484122296 0.28918681422074449 0.32681782377304791 0.075650647721108966 0.26188817413345111 -0.033727562687325754 -0.011823888198232392 0.085048942614656051 0.15388978481549342 0.47223639334078132 0.052380514954982964 0.1928493937778884 0.024016762646436141 0.310378611026842 0.094778297082673282 0.41865014881855211 0.10785204691946765 0.46596149761040412 -0.041267034359240826 0.16443632997951679 0.024100486378417222 0.28679486078978217 0.2531888323831048 0.18951856583806426 -0.035640977116684888 0.069311934702815478 0.46458453054564369 0.042778495634396063
internal_count=392937 41143 351794 25269 21171 29326 14636 322468 82574 15874 6039 6535 23236 4987 32445 9167 4098 4348 7846 3207 239894 6090 15390 7951 5610 5237 181995 11065 1216 9835
shrinkage=0.05
has_categorical=0


Tree=7
num_leaves=31
split_feature=39 27 39 40 29 3 8 4 3 7 7 13 7 4 7 13 13 7 4 3 0 3 24 9 7 34 13 31 25 29
split_gain=1836.4267554725336 293.45456376926177 187.98327225806383 138.08204151511632 115.32983719197932 98.111869402293905 67.827065473444009 58.401610104806196 55.821150385011208 51.586531572035781 46.980038396208755 46.845595164762869 43.863690316833015 33.710623025049131 32.619617431219439 30.748485298004567 27.450888060384919 26.084724647132703 37.674506370605059 25.652578601979087 25.171885241965981 25.168326090815356 22.607404911918081 22.121490720330403 21.420755682631864 21.137094017257134 35.357414342037892 20.86686636972567 20.559932075818281 18.482898496346877
threshold=-9.9999996826552254e-21 2.5 9.9999996826552254e-21 1.5 1.5 40 59.5 7.5 40 922.5 8147 0.0186932215234102 8873.5 3 41.5 0.056731274011501659 0.02353266888150609 1602 3 15 9.9999996826552254e-21 25 8.5 46.5 37.5 0.98559286898839138 0.069737787237968474 7.5 0.032795698924731179 4.5
decision_type=0 0 0 0 0 0 0 0 0 0 0 0 0 0 0 0 0 0 0 0 0 0 0 0 0 0 0 0 0 0
default_value=0 0 -9.9999996826552254e-21 0 0 1.7976931348623157e+308 0 0 0 0 0 1.7976931348623157e+308 0 0 0 1.7976931348623157e+308 1.7976931348623157e+308 0 0 1.7976931348623157e+308 0 0 0 0 0 0 0 1.7976931348623157e+308 1.7976931348623157e+308 0
left_child=1 7 4 5 8 6 17 9 11 -1 15 -2 20 19 -7 23 -5 18 24 -13 25 -15 29 -3 -4 -11 -27 -17 -21 -6
right_child=2 10 3 16 22 14 -8 -9 -10 12 -12 13 -14 21 -16 27 -18 -19 -20 28 -22 -23 -24 -25 -26 26 -28 -29 -30 -31
leaf_parent=9 11 23 24 16 29 14 6 7 8 25 10 19 12 21 14 27 16 17 18 28 20 21 22 23 24 26 26 27 28 29
leaf_value=9.8980638494632509e-05 0.0011763093554156049 0.0062029116970678611 0.018857500286485897 -0.0012936101142329037 0.017486930657847285 0.016666424921448368 0.027030834105452619 -0.0024119431129373506 0.001319573592725322 -0.001421680340372251 0.013640033823987804 0.011778210654544334 0.0041413274355484369 0.016654161528484628 0.0054861805095617567 0.0049404004018774768 0.0085038365897895773 -0.0026616749399137208 0.023881907408117554 0.034131475319228478 -0.0023475253788390357 0.0091590332228392319 0.011058910352541654 -0.00030207633683648907 0.012119485406765093 -0.0010158590108082179 0.0045201375519585496 0.010657667306069991 0.0054612836110741383 0.029196988641898011
leaf_count=70073 2559 1861 2194 933 1197 965 2279 114843 4697 61842 1494 2160 3316 1792 2014 7631 3059 164 1715 63 71192 2987 932 4390 2551 8857 4277 2018 8413 469
internal_value=0 -0.023379171106796423 0.19990404366648656 0.28518704274833329 0.14632921571820071 0.3392470256484853 0.39181037929306989 -0.029966249293669988 0.12345948522791098 -0.020408450222138035 0.10325753958025198 0.14882548382671376 -0.03090321045092885 0.16962606120604493 0.18215688214471332 0.087326882565921207 0.12428004955704919 0.34061328326081991 0.35061187029761426 0.13827942267561841 -0.0334833092508088 0.23939020588267521 0.34589798398046334 0.032690780833566156 0.30470037050034904 -0.020695793469457532 0.015738031142071465 0.12272228850736089 0.1134876403140116 0.41566919172260941
internal_count=392937 351794 41143 15874 25269 11882 8903 334400 22671 219557 17394 17974 149484 15415 2979 15900 3992 6624 6460 10636 146168 4779 2598 6251 4745 74976 13134 9649 8476 1666
shrinkage=0.05
has_categorical=0


Tree=8
num_leaves=31
split_feature=38 38 27 13 6 13 3 27 3 13 32 4 8 7 6 1 1 7 13 7 9 6 1 1 7 6 7 9 9 7
split_gain=1657.3751164539426 348.37373805362677 265.87904885490616 154.7655574157975 170.41625772675457 52.24755791431491 49.130400854906043 47.393161899319978 44.894673244437797 59.199170216432876 43.223686259656063 39.249255388187294 39.002285382505875 34.942945396490472 31.455935766597499 30.071403687386464 32.8861547475517 30.005368722171667 29.42828820777537 29.67814425001038 25.144300892943789 23.897828576950459 26.033773512502798 30.690303018724293 23.759462731001751 29.191825818830665 23.355691098450698 23.263100686403043 22.38579833537937 22.277085057931657
threshold=-9.9999996826552254e-21 9.9999996826552254e-21 1.5 0.02558893998243969 0.84166666666666667 0.030418690724034241 25 6.5 25 0.077129637280013236 0.60681818181818181 7.5 199 67.5 0.8833333333333333 19.5 24.5 8147 0.008547632963179428 3160.5 19.5 0.84166666666666667 22.5 25.5 646.5 0.77500000000000002 386.5 532 11.5 2696
decision_type=0 0 0 0 0 0 0 0 0 0 0 0 0 0 0 0 0 0 0 0 0 0 0 0 0 0 0 0 0 0
default_value=0 -9.9999996826552254e-21 0 1.7976931348623157e+308 0 1.7976931348623157e+308 1.7976931348623157e+308 0 0 1.7976931348623157e+308 0 1.7976931348623157e+308 0 0 0 0 0 0 0 0 1.7976931348623157e+308 0 0 0 0 0 0 0 0 0
left_child=2 3 8 18 11 28 12 17 9 -1 21 15 13 -6 -11 -5 -17 -7 26 24 -15 22 -3 -24 25 -20 -2 -22 -4 -8
right_child=1 10 5 4 6 7 29 -9 -10 14 -12 -13 -14 20 -16 16 -18 -19 19 -21 27 -23 23 -25 -26 -27 -28 -29 -30 -31
leaf_parent=9 26 22 28 15 13 17 29 7 8 14 10 11 12 20 14 16 16 17 25 19 27 21 23 23 24 25 26 27 28 29
leaf_value=-0.0015965153774839488 0.0084413438806060087 0.0023965628600317586 0.0053742955152231917 0.017865410262807701 0.016016819406906864 0.0028727892841106171 0.0092128857162736711 0.0097130387918209476 -0.001871163290968844 0.0033087148766171811 0.011184812909630422 0.013137807013816708 0.025807521900570431 0.017573276316913244 2.4620428040163669e-05 0.028327859115578002 0.016781373499948554 0.0092544631024557532 0.029166171729564667 0.025543550264376866 0.0053718232519886951 0.0011924986410013099 0.01327146313617409 0.00060495936133152922 -0.0026131583390164217 0.0038166898772144472 0.030209848647937177 0.018351548828996055 -0.001957721324331725 -0.0017722308164528707
leaf_count=50129 536 3025 1300 1718 4782 16982 5250 3752 239894 11065 1716 1145 666 751 21380 2903 783 2066 125 130 2372 8855 1595 683 1796 1242 160 404 5226 506
internal_value=0 0.18990883994764687 -0.022210212144159368 0.26284180781330974 0.29672539147261279 0.068951976040499782 0.23705744647553267 0.091533991174870419 -0.030500716413430471 -0.010389324604990691 0.073810618642529385 0.43093954596215123 0.28330643116265619 0.26464304103613445 0.022892473331032705 0.46657426089743259 0.51750184733034543 0.071299273826585546 0.082084058936406093 0.042596595512854087 0.1891325261958233 0.055643945562437874 0.10873382461845436 0.18947472296740214 0.02335041363782759 0.12269349368977216 0.26891195700214854 0.14521606974518436 -0.0099432040182882171 0.16494406260358452
internal_count=392937 41143 351794 25269 21280 29326 14731 22800 322468 82574 15874 6549 8975 8309 32445 5404 3686 19048 3989 3293 3527 14158 5303 2278 3163 1367 696 2776 6526 5756
shrinkage=0.05
has_categorical=0


Tree=9
num_leaves=31
split_feature=36 27 13 6 39 39 36 36 40 34 3 1 7 3 13 13 1 13 22 6 7 7 7 6 7 3 6 35 3 7
split_gain=1495.7810564196177 242.27393043887682 155.88665633060691 158.92401371042456 77.649570596626518 65.384518144885305 62.790290847037767 60.253775604730095 52.808870370295608 47.108529691450258 44.765973900649385 41.771619026954227 39.749186903985645 37.772490515807704 42.787085526799146 36.327099339834582 34.857034971189591 30.171126375978695 30.088350920317254 28.766990516802142 27.294490295235988 27.14370752655541 25.122422790592793 25.423203092351756 24.278247901386194 24.126179235552399 23.688940527118334 23.597749166401769 23.541518795751983 21.872868268711784
threshold=1.5 2.5 0.027621678505656406 0.84166666666666667 9.9999996826552254e-21 9.9999996826552254e-21 2.5 2.5 1.5 0.98559286898839138 15 19.5 8147 25 0.077129637280013236 0.069737787237968474 23.5 0.008547632963179428 6.8452380952380949 0.84166666666666667 2658.5 3160.5 646.5 0.77500000000000002 8147 25 0.84166666666666667 0.55902777777777779 25 36.5
decision_type=0 0 0 0 0 0 0 0 0 0 0 0 0 0 0 0 0 0 0 0 0 0 0 0 0 0 0 0 0 0
default_value=0 0 1.7976931348623157e+308 0 -9.9999996826552254e-21 -9.9999996826552254e-21 0 0 0 0 0 0 0 0 1.7976931348623157e+308 0 0 0 1.7976931348623157e+308 0 0 0 0 0 0 1.7976931348623157e+308 0 1.7976931348623157e+308 1.7976931348623157e+308 0
left_child=1 9 17 4 7 6 -5 -4 28 13 27 -6 20 14 -1 -11 -13 -2 -12 -17 26 22 23 -19 -16 -9 -3 -8 -7 -20
right_child=2 12 3 5 11 8 10 25 -10 15 18 16 -14 -15 24 19 -18 21 29 -21 -22 -23 -24 -25 -26 -27 -28 -29 -30 -31
leaf_parent=14 17 26 7 6 11 28 27 25 8 15 18 16 12 13 24 19 16 23 29 19 20 21 22 23 24 25 26 27 28 29
leaf_value=-0.0016106291510513222 0.009774195349241694 0.0084303628676706058 0.0072101261763501973 0.0012610370102859364 0.013566451600962499 0.016330570892703327 0.029965355903164955 0.023057699931863452 0.0043318182380071169 -0.00072242098840937961 0.013371227541697861 0.026460141835406483 0.012495796374198663 -0.0019193920695083422 0.00060956166205902457 0.0042306798073820694 0.014762499813391087 0.019307240840642392 0.0087140051038440639 -0.0007336438029836638 0.0011894241359896457 0.017890577370283801 -0.0030505473194343429 0.0020593391849134846 0.0075900742645904871 0.013604537857371941 0.0035248478919620756 0.013025498736321892 0.01020083939520457 0.0028311325310866947
leaf_count=40387 1063 4136 3540 4774 1683 3664 234 1027 1961 35716 1355 2347 1494 217920 26520 7934 874 238 2637 4616 5687 218 3100 2088 1307 1969 6077 1693 2736 3942
internal_value=0 -0.021099701239328136 0.18041339917880539 0.20757868611324656 0.3038953764064537 0.15966326878178502 0.11935964816456408 0.23253194472297681 0.23021027126151572 -0.027084860717343014 0.16493506106341083 0.39900781308736827 0.093965110158175311 -0.03195961311617232 -0.011423660005830078 0.0018139998239619383 0.46572106628129661 0.0409376543041347 0.1317296930057503 0.048095161429795613 0.079311618266053166 0.011830165537376508 -0.0020703028089724207 0.076483435409907527 0.018748555246074026 0.33689981889979387 0.11022908344294362 0.30165088367341525 0.27420221355045216 0.10378220366736751
internal_count=392937 351794 41143 34436 11440 22996 14635 6536 8361 334400 9861 4904 17394 286134 68214 48266 3221 6707 7934 12550 15900 5644 5426 2326 27827 2996 10213 1927 6400 6579
shrinkage=0.05
has_categorical=0


Tree=10
num_leaves=31
split_feature=36 27 39 29 13 41 6 36 26 8 7 4 7 7 1 3 3 13 8 6 4 3 3 13 7 6 6 7 7 29
split_gain=1349.9424018036209 218.81572617455902 141.80077892267468 91.395336906620003 85.355631911536079 85.954861217441476 79.62123771931806 50.199520157516332 45.545276289610996 40.635225222969098 40.926179763621121 39.092797619802809 39.962300165756773 32.41915097084582 30.409929320022115 30.06607333668552 28.380216039330406 27.074465696750011 23.911727805451243 25.755196756082199 23.673144155331897 22.127418154011195 20.926683405292778 20.875765366145373 20.570241053962221 19.979796988550749 19.725165064490199 19.385484791944926 18.052294852472802 17.918529228523113
threshold=1.5 1.5 9.9999996826552254e-21 1.5 0.027621678505656406 1.5 0.84166666666666667 2.5 0.51666666666666661 61.5 148.5 7.5 922.5 8873.5 19.5 25 40 0.030418690724034241 11.5 0.84166666666666667 7.5 25 40 0.02558893998243969 8147 0.81666666666666665 0.8833333333333333 870 3160.5 4.5
decision_type=0 0 0 0 0 0 0 0 0 0 0 0 0 0 0 0 0 0 0 0 0 0 0 0 0 0 0 0 0 0
default_value=0 0 -9.9999996826552254e-21 0 1.7976931348623157e+308 0 0 0 0 0 0 0 0 0 0 1.7976931348623157e+308 0 1.7976931348623157e+308 0 0 1.7976931348623157e+308 1.7976931348623157e+308 0 0 0 0 0 0 0 0
left_child=1 11 3 7 18 6 14 -2 17 10 15 12 25 -14 -6 26 -11 -3 19 -4 -16 -8 24 -12 -19 -1 -9 -27 -20 -5
right_child=2 8 4 29 5 -7 21 9 -10 16 23 -13 13 -15 20 -17 -18 22 28 -21 -22 -23 -24 -25 -26 27 -28 -29 -30 -31
leaf_parent=25 7 17 19 29 14 5 21 26 8 16 23 11 13 13 20 15 16 24 28 19 20 21 22 23 24 27 26 27 28 29
leaf_value=0.0021277205010388259 0.0024578326751060527 -0.0007584441862022544 0.022014703234190386 0.012260694409381937 0.014442717587637112 0.00073498984867775884 0.014296169616213758 0.020505869683777978 0.0071900339177810484 0.0180789028873235 -0.00039074571926092601 -0.0021276645199878549 -0.0015536156678024836 0.0037166339449034441 0.024892104527185887 0.0047540745459875022 0.0009940476153677089 0.0032690632266332651 -0.0021246223185229078 0.0050424582545193402 0.012069956535616747 0.0088218870701214144 -0.0007361642272050242 0.0069790951768278521 0.0093348058598076676 -0.00039593975605349796 0.009941272501602462 0.010980096902075749 0.021295402812856166 0.021143750700575073
leaf_count=9779 9512 5905 291 1760 1477 1134 4368 501 5597 1263 2683 113032 140159 2980 2673 3173 301 13360 1266 964 416 3197 2903 1497 1561 56141 3741 377 88 838
internal_value=0 -0.020044717360849885 0.1713927279218582 0.12486193099967414 0.24546269815158406 0.27798313084376158 0.30259472927825293 0.10450312864359242 0.062656508778353825 0.14451039907034793 0.1241013443543254 -0.027565761798618246 -0.019477036207774617 -0.028877894805429131 0.40687512569831119 0.16870780761830323 0.29581665829814913 0.043516894082245086 0.080118298127921705 0.17955710595228758 0.46330655435405915 0.23965430759233272 0.062959191992149902 0.044972893372891051 0.078072939689002321 0.00081995307997098123 0.22378001480465617 -0.0064011314315852892 -0.012049873082993478 0.30251951691758366
internal_count=392937 351794 41143 25269 15874 13265 12131 22671 29326 13159 11595 322468 209436 143139 4566 7415 1564 23729 2609 1255 3089 7565 17824 4180 14921 66297 4242 56518 1354 2598
shrinkage=0.05
has_categorical=0


Tree=11
num_leaves=31
split_feature=38 38 31 13 3 7 34 13 22 13 3 13 30 13 7 3 22 7 9 3 7 7 9 37 7 7 7 19 37 3
split_gain=1218.3230044331531 271.71257809532949 180.57521474237586 113.04270913422033 59.14673962135339 83.173281897116794 47.565004190764142 37.183291214074565 34.475090489396322 31.770033231033075 31.543165792835197 36.777588956836134 26.373914873384905 23.819809221112383 22.859504570238485 22.426905761804363 22.328599351100138 22.253695142577904 21.146787226165841 20.24101561225757 19.285953175157303 18.8893556665804 23.102766716812255 22.113058754310401 18.772798930053412 18.345263086511125 17.919093715546467 17.078243878584239 16.043886234500349 17.539917948811734
threshold=-9.9999996826552254e-21 9.9999996826552254e-21 2.5 0.02558893998243969 40 860 0.70555555555555549 0.069737787237968474 11.125 0.027621678505656406 25 0.077129637280013236 6.5 0.008547632963179428 3160.5 40 6.3589743589743577 8147 17.5 75 8147 4.5 5.5 11.5 2658.5 780.5 646.5 2.5 5.5 15
decision_type=0 0 0 0 0 0 0 0 0 0 0 0 0 0 0 0 0 0 0 0 0 0 0 0 0 0 0 0 0 0
default_value=0 -9.9999996826552254e-21 0 1.7976931348623157e+308 1.7976931348623157e+308 0 0 0 1.7976931348623157e+308 0 0 1.7976931348623157e+308 0 0 0 0 1.7976931348623157e+308 0 0 0 0 0 1.7976931348623157e+308 0 0 0 0 0 0 0
left_child=2 3 6 13 5 16 10 -8 -4 -3 11 -1 -11 18 26 -9 -5 -13 -2 27 24 -18 23 -23 -10 -21 -15 -6 -24 -30
right_child=1 9 8 4 19 -7 7 15 20 12 -12 17 -14 14 -16 -17 21 -19 -20 25 -22 22 28 -25 -26 -27 -28 -29 29 -31
leaf_parent=11 18 9 8 16 27 5 7 15 24 12 10 17 12 26 14 15 21 17 18 25 20 23 28 23 24 25 26 27 29 29
leaf_value=-0.0014728708350658197 0.017440370935391244 0.00087104308366595443 0.0090974707963586941 0.017749144160148386 0.0041145924868104151 0.021340867418631879 -0.00060393849918076318 0.0035962793264411085 0.0040327422990185857 0.0039741288183424142 -0.0017410405632522002 0.00057518410526911478 0.011660715045902201 0.0053303364533508618 0.022409973276349218 -0.0012668545999245516 0.01728281563324896 0.0072582105250192583 -0.0020282045276980329 0.015192229658199814 0.0096890931517232635 0.014772395274764 0.011864292054675069 0.035733710920853583 -8.4185728467446949e-05 0.003461345640436703 -0.0022666298004410715 0.018490140529216402 0.014284483624786787 0.0059059321094686408
leaf_count=40401 503 8275 2963 1731 2660 3272 36086 10328 7764 6240 217996 26537 1359 1367 130 3077 1326 1307 193 1261 1031 1327 4986 139 4304 453 1796 224 781 3120
internal_value=0 0.16282309160287334 -0.019042480430884055 0.22723350017782845 0.25619182646330585 0.28387016507539797 -0.023997989758403438 0.0046273207646153466 0.084538833075948089 0.060291491862383181 -0.028947299057542005 -0.01018545324925416 0.10697585359609885 0.07275037574690367 0.037224411394253643 0.049599793031728345 0.24899147874068006 0.017777719981128193 0.24083514674299064 0.15577206901943441 0.062504513128762651 0.23328198981832199 0.2188892194044644 0.33519719437394918 0.051289154514843241 0.24183653645399988 0.020333245716967839 0.10462279815159624 0.19970304957153265 0.15166721298385358
internal_count=392937 41143 351794 25269 21280 16682 335732 49491 16062 15874 286241 68245 7599 3989 3293 13405 13410 27844 696 4598 13099 11679 10353 1466 12068 1714 3163 2884 8887 3901
shrinkage=0.05
has_categorical=0


Tree=12
num_leaves=31
split_feature=38 38 27 13 8 4 32 13 13 9 31 9 39 4 13 13 9 8 8 22 27 27 8 8 8 8 9 4 26 4
split_gain=1099.5365259600349 245.22060530067949 182.51279811377751 102.24152867768908 56.725028800137352 40.777151983027466 32.39138588567797 30.474836609727348 28.856719878484391 35.649142381199951 24.582680768331613 21.887272203170031 21.88236365552325 21.662969302952206 24.424659047211208 40.850969770757047 30.309718781437766 20.191129384440273 20.139383418826384 18.501911567710181 18.457897627541744 17.471614010924554 42.573903511301936 15.78706575783599 15.138114358074358 15.040178266996575 14.301446975893469 13.588639235795142 11.991048393891688 11.963585835673163
threshold=-9.9999996826552254e-21 9.9999996826552254e-21 2.5 0.027621678505656406 59.5 7.5 0.72077922077922074 0.030418690724034241 0.16158951204917585 118.5 7.5 1.5 9.9999996826552254e-21 15 0.13059629175011306 0.11773961332784863 1904 70.5 734 4.4142857142857146 5.5 9.9999996826552254e-21 279.5 43.5 337.5 16.5 6.5 7.5 0.47246376811594204 3
decision_type=0 0 0 0 0 0 0 0 0 0 0 0 0 0 0 0 0 0 0 0 0 0 0 0 0 0 0 0 0 0
default_value=0 -9.9999996826552254e-21 0 1.7976931348623157e+308 0 0 0 1.7976931348623157e+308 0 0 1.7976931348623157e+308 0 -9.9999996826552254e-21 1.7976931348623157e+308 0 0 0 0 0 1.7976931348623157e+308 0 0 0 0 0 0 1.7976931348623157e+308 1.7976931348623157e+308 0 1.7976931348623157e+308
left_child=2 3 5 11 12 8 24 25 9 -1 18 -2 19 14 15 16 -6 23 -9 -5 -15 -11 -23 29 -3 -4 -21 -20 -12 -13
right_child=1 6 7 4 13 -7 -8 10 -10 21 28 17 -14 20 -16 -17 -18 -19 27 26 -22 22 -24 -25 -26 -27 -28 -29 -30 -31
leaf_parent=9 11 24 25 19 16 5 6 18 8 21 28 29 12 20 14 15 16 17 27 26 20 22 22 23 24 25 26 27 28 29
leaf_value=3.915577278032923e-05 0.01188952518666439 0.0016864936204778935 0.0047477302545394524 0.015467465572428327 0.020600182447495112 -0.0019276835184195648 0.0094354794680023748 0.003431294150135654 0.0017850419421596585 -0.0015949333415168625 0.0070279378227842458 0.0013323649566989303 0.012407556603064364 0.0029214599721917103 0.022775927140387429 0.0027986793220043183 0.0041681862825697124 0.021289474585881599 0.013214865675417043 0.013249292881041767 0.024456034559989348 -0.0014197580858909551 0.0034389472159296803 -0.0026068015442007116 0.008733820810563642 -0.0022686455805193298 0.006734191599950189 -0.0017525367235225406 0.014087573012845821 0.0098282136790187047
leaf_count=68724 662 13389 1116 888 1876 114843 1677 10130 10561 117748 1741 1172 8938 447 1682 540 330 130 885 1000 128 16290 6234 1493 808 2420 5342 183 919 641
internal_value=0 0.15468193789640683 -0.018090356671656968 0.21587182648798081 0.24385744633176748 -0.023285159234338524 0.057276917433985025 0.081779827125095503 -0.015298706403556439 -0.017875818871502823 0.10292332369964831 0.071293115479487107 0.21506332849391552 0.33691027407559926 0.36062258368908229 0.30249621688733547 0.36284173839300843 0.039214747893917823 0.082395877198095421 0.17415893177397518 0.15430487065211587 -0.027017462269303291 -0.0015001440907991752 0.024013684162192826 0.041751624004386749 -0.0010840234207621527 0.15522972061802484 0.21300453000635691 0.18933924322009535 0.0867227434914742
internal_count=392937 41143 351794 25269 21171 334400 15874 17394 219557 208996 13858 4098 16168 5003 4428 2746 2206 3436 11198 7230 575 140272 22524 3306 14197 3536 6342 1068 2660 1813
shrinkage=0.05
has_categorical=0


Tree=13
num_leaves=31
split_feature=38 38 31 13 3 4 32 4 12 32 32 22 1 1 13 7 9 7 7 13 7 13 3 7 30 7 7 9 3 7
split_gain=992.33171617492371 221.31159590953723 146.87723681428287 92.2729795865298 50.978363969739576 84.913225003702792 40.333389437229158 38.820220695586343 34.555981628441998 30.017552460632473 29.233225950182927 27.673896574535945 27.359260695037619 32.090181427406947 25.417969598702882 23.924787447023903 31.012644734861226 20.822444007621002 20.304798401933596 19.82243220747268 19.58189315032368 19.404647347520221 18.98699070309226 18.714097933647349 18.584033307806152 26.785117355087596 18.327425249293618 17.773445410950451 16.760806139712926 16.464225617492588
threshold=-9.9999996826552254e-21 9.9999996826552254e-21 2.5 0.027621678505656406 40 3 0.56349206349206349 7.5 0.10135135135135137 0.56349206349206349 0.72077922077922074 6.3589743589743577 19.5 24.5 0.10225715830599294 36.5 199 10615 8147 0.008547632963179428 386.5 0.006637980409146314 40 2658.5 5.5 8147 3160.5 3.5 40 148.5
decision_type=0 0 0 0 0 0 0 0 0 0 0 0 0 0 0 0 0 0 0 0 0 0 0 0 0 0 0 0 0 0
default_value=0 -9.9999996826552254e-21 0 1.7976931348623157e+308 1.7976931348623157e+308 0 0 0 1.7976931348623157e+308 0 0 1.7976931348623157e+308 0 0 0 0 0 0 0 0 0 0 0 0 1.7976931348623157e+308 0 0 1.7976931348623157e+308 0 0
left_child=2 3 6 19 5 11 8 -6 -1 18 22 -5 -7 -14 17 -13 27 24 23 20 21 -2 -3 28 25 -10 -21 -17 -4 -26
right_child=1 10 9 4 7 12 -8 -9 14 -11 -12 15 13 -15 -16 16 -18 -19 -20 26 -22 -23 -24 -25 29 -27 -28 -29 -30 -31
leaf_parent=8 21 22 28 11 7 12 6 7 25 9 10 15 13 13 14 27 16 17 18 26 20 21 22 23 29 25 26 27 28 29
leaf_value=-0.0020706479073490532 -0.0011730233625723767 0.002963596317652585 0.0048335104452900029 0.016326021922088537 0.0038286687801533112 0.012814780785190877 0.0045286857446686169 0.013805761465683897 -0.00029121265905116591 0.0090134135874708927 0.0089637055113405157 0.012185125917076302 0.022932148057481519 0.011433065809571076 0.00057404799930453414 0.019543300924498005 0.016523855940333145 0.007193123097525427 0.0094056796871442028 0.001082019936999256 0.026424867808818822 0.018299506039698543 -0.0014271469690399217 -0.00024569709706497532 -0.00047141252209747814 0.006515184491823478 0.02022500073680511 0.0049158735278532328 -0.0011253645118829928 -0.0015243243976682823
leaf_count=76261 325 11027 6664 1681 3160 1694 3172 1410 33312 2365 1677 4223 2875 769 27635 218 758 767 1107 3272 160 211 3170 4492 50158 1511 130 4383 1434 142916
internal_value=0 0.14694784085583629 -0.017185839107544381 0.20507823496867078 0.23166457381377306 0.25741077958998942 -0.021655107897690252 0.13813880530371447 -0.022725560826164063 0.076231951295472278 0.054413071494792173 0.2081747770145394 0.36129708476183164 0.41010951302315873 -0.017165181710042558 0.18741303031665005 0.14305577935022878 -0.020627187647893036 0.058268463095605065 0.067728459544156225 0.22149258709630404 0.12984937244553618 0.039664042689157575 0.046851579884601265 -0.021180786691504729 8.2455657946092258e-05 0.036270542796274133 0.11217871451476324 0.075566166701339504 -0.025015844173790932
internal_count=392937 41143 351794 25269 21171 16601 335732 4570 332560 16062 15874 11263 5338 3644 256299 9582 5359 228664 13697 4098 696 536 14197 12590 227897 34823 3402 4601 8098 193074
shrinkage=0.05
has_categorical=0


Tree=14
num_leaves=31
split_feature=39 30 13 39 40 22 34 3 7 4 3 13 3 1 7 4 29 13 4 7 32 7 7 7 3 13 3 3 7 3
split_gain=895.57937018438531 132.03312401454448 101.21072387698143 92.194065715324882 63.281591943799185 62.729689231450891 41.863412214723553 34.024774752962571 32.018815792397461 29.820721625943861 25.626764834164675 29.392066819908447 24.645998235511911 24.615579705362165 24.055567562974389 23.343735210488489 23.134899592192397 23.020573243398104 22.093312201975415 20.88556319664734 18.648550231925121 18.581728592249519 18.512078312726622 18.579317390290697 18.25329073130753 18.036465586082063 17.754193124486449 16.2242229202717 16.117365718177581 14.965029959561605
threshold=-9.9999996826552254e-21 3.5 0.02558893998243969 9.9999996826552254e-21 1.5 6.5499999999999998 0.98559286898839138 40 8147 3 25 0.077129637280013236 40 19.5 8147 3 4.5 0.008547632963179428 7.5 8147 0.56349206349206349 3160.5 386.5 157.5 15 0.02848624778642039 25 40 646.5 40
decision_type=0 0 0 0 0 0 0 0 0 0 0 0 0 0 0 0 0 0 0 0 0 0 0 0 0 0 0 0 0 0
default_value=0 0 1.7976931348623157e+308 -9.9999996826552254e-21 0 1.7976931348623157e+308 0 1.7976931348623157e+308 0 0 0 1.7976931348623157e+308 0 0 0 1.7976931348623157e+308 0 0 0 0 0 0 0 0 0 1.7976931348623157e+308 1.7976931348623157e+308 1.7976931348623157e+308 0 0
left_child=1 6 17 5 7 16 10 9 25 -5 11 -1 15 -11 20 24 -4 22 -9 -13 -3 28 23 -2 -7 -8 -17 -10 -19 -27
right_child=2 14 3 4 -6 12 8 18 27 13 -12 19 -14 -15 -16 26 -18 21 -20 -21 -22 -23 -24 -25 -26 29 -28 -29 -30 -31
leaf_parent=11 23 20 16 9 4 24 25 18 27 13 10 19 12 13 14 26 16 28 18 19 20 21 22 23 24 29 26 27 28 29
leaf_value=-0.0012650401522629935 0.016123808321097624 0.0024922107040805889 0.010370159017148849 0.012233375744206229 0.0049744293589078729 0.0084481290965795069 -0.0015969213691517604 0.004718082561327594 0.0065843714077187619 0.012117778279881168 -0.0015136630869437694 0.00054523508569396335 0.0011801750056161728 0.021509362130617615 0.011541897699505359 0.012806928900845938 0.02110632698132486 0.0026962786473319934 0.014914050040541183 0.0070200358837409702 0.0073563444251541765 0.014261180405086333 0.019307961546712452 -0.00074185239644076009 0.0031922686528827304 0.0011289865186739027 0.0064394260953609464 -0.00095699601282770081 -0.0029421116974084611 -0.0012167900514819128
leaf_count=40221 230 9775 2596 4668 3038 2123 13809 1644 2852 1027 217181 26456 3622 2176 999 1661 622 2144 785 1307 2468 218 270 563 7445 26647 3211 951 3100 9128
internal_value=0 -0.016326546900395509 0.13960044874589636 0.16113344966152268 0.22631744139844964 0.12027705484069884 -0.020157980782234988 0.26372579665293971 0.0055421286205161154 0.29565424536556106 -0.024969411850860778 -0.0080257865488941281 0.097359891661611214 0.36996147542717378 0.081629925200836909 0.11586028294911263 0.2489065766992074 0.025358391167788669 0.16026395234785829 0.017000991483030609 0.069454901043319875 -0.00084506596037207482 0.15999929693826279 0.0829965451363507 0.087169352409594933 -0.0012401754652468832 0.17220569005135097 0.093970676027424482 -0.01273731823831592 0.010609221061174892
internal_count=392937 351794 41143 34618 13338 21280 338552 10300 53387 7871 285165 67984 18062 3203 13242 14440 3218 6525 2429 27763 12243 5462 1063 793 9568 49584 4872 3803 5244 35775
shrinkage=0.05
has_categorical=0


Tree=15
num_leaves=31
split_feature=36 38 27 6 6 7 8 8 0 6 27 6 6 27 13 9 6 3 7 3 7 7 9 7 3 7 37 37 7 9
split_gain=808.26038338333365 190.85112927322371 137.94634589269484 78.06511294846905 103.82495790460689 41.456599968162152 37.215022761795723 37.749501969029481 34.262625144546035 33.565928602347071 33.081302000381072 29.358450739696551 27.813318359540283 26.661374885767501 22.595974779298743 22.154140102054726 19.957437212443764 19.771283173820073 19.381431210741013 18.075852337204424 17.696444125830141 17.422981007866596 35.683542301549835 17.016202876967601 16.313263500035248 19.072694260427909 15.287654699207096 15.000546607503221 14.158463374828319 12.95372266181765
threshold=1.5 9.9999996826552254e-21 1.5 0.84166666666666667 0.68333333333333335 36.5 59.5 321 9.9999996826552254e-21 0.77500000000000002 6.5 0.84166666666666667 0.68333333333333335 1.5 0.056731274011501659 1365 0.84166666666666667 40 603 7.5 8873.5 384.5 187 2658.5 40 137.5 2.5 2.5 122.5 46.5
decision_type=0 0 0 0 0 0 0 0 0 0 0 0 0 0 0 0 0 0 0 0 0 0 0 0 0 0 0 0 0 0
default_value=0 -9.9999996826552254e-21 0 0 0 0 0 0 0 0 0 0 0 0 1.7976931348623157e+308 0 0 0 0 0 1.7976931348623157e+308 0 1.7976931348623157e+308 0 1.7976931348623157e+308 0 0 0 0 0
left_child=2 3 8 4 23 -5 18 15 17 -6 14 12 -3 -14 29 -8 26 20 21 -10 27 -7 -23 -2 25 -11 -16 -1 -26 -4
right_child=1 11 10 5 9 6 7 -9 19 24 -12 -13 13 -15 16 -17 -18 -19 -20 -21 -22 22 -24 -25 28 -27 -28 -29 -30 -31
leaf_parent=27 23 12 29 5 9 21 15 7 19 25 10 11 13 13 26 15 16 17 18 19 20 22 22 23 28 25 26 27 28 29
leaf_value=-0.00057677439571978512 0.0099362389804618229 -0.0023094240905355817 0.0031884231394089194 0.010869649797164515 0.02122778754387154 0.0043979498538637626 0.016920310432958132 -0.0039448903443721622 0.0017100538003235904 0.010268730501266294 0.0064056507983425298 0.00064951115375432987 0.0037579156875929874 0.011279229120965588 0.0033474122151770031 0.0035435851462242846 0.00081585126517175828 -0.0014140913107616785 -0.0014215776191701607 -0.0016524868885026075 0.0028635889031349941 0.019998736851490465 -0.0017718486412096831 -0.0023612895622981463 0.015294816262661229 0.017783370157887307 0.008163414458407011 0.0010197265298883651 0.0024034611180119452 -0.0009924235634411918
leaf_count=87242 389 1052 2424 5804 2102 7067 1515 338 4097 1323 4591 9835 3078 1909 6344 389 5880 45551 1287 163288 4592 520 295 1016 353 2334 2226 17698 537 7861
internal_value=0 0.13262042667259219 -0.015510219355589073 0.18660237429044133 0.26786337558504797 0.14858459302835814 0.11358643594148878 0.22907539689041057 -0.02148186445716279 0.32005551084371808 0.050153848455031992 0.046689354834654057 0.10157111685739723 0.13274077753492891 0.035684047038142597 0.28374711058626906 0.061183320576756885 -0.010773006036603694 0.085347124081146031 -0.031403672805793592 -0.0034916246324773249 0.10392529670356102 0.24237172548756278 0.02087013193031647 0.27174684478898664 0.30129568718449157 0.091966729702443198 -0.0061505301515954276 0.150330983395322 -0.00014137859462126981
internal_count=392937 41143 351794 25269 8054 17215 11411 2242 322468 6649 29326 15874 6039 4987 24735 1904 14450 155083 9169 167385 109532 7882 815 1405 4547 3657 8570 104940 890 10285
shrinkage=0.05
has_categorical=0


Tree=16
num_leaves=31
split_feature=36 38 27 6 6 7 13 31 0 6 6 3 7 6 27 8 4 13 12 3 3 7 7 13 6 7 37 3 0 6
split_gain=729.45499717144776 172.24314509121393 124.49657676137731 70.453767248847157 93.702025405622067 37.414579712871841 34.33885864094961 33.240574084276602 30.922018547072014 30.293250620785443 26.496001509540189 26.226967749358522 26.071460222431334 25.101519828531288 24.219871887584986 22.021956271068262 21.227648522379937 18.155937432181506 17.000209851479951 16.313457305781014 15.682421700611599 15.357122925260247 14.922146796659888 16.80302160607889 13.842062588637267 13.816376754626459 13.584283143390415 13.53186414309306 13.255525858943237 12.935761603559159
threshold=1.5 9.9999996826552254e-21 1.5 0.84166666666666667 0.68333333333333335 36.5 0.16158951204917585 8.5 9.9999996826552254e-21 0.77500000000000002 0.84166666666666667 40 8147 0.68333333333333335 2.5 68.5 7.5 0.056731274011501659 0.19139194139194138 7.5 40 2658.5 762.5 0.16158951204917585 0.81666666666666665 10615 2.5 40 8.5 0.6333333333333333
decision_type=0 0 0 0 0 0 0 0 0 0 0 0 0 0 0 0 0 0 0 0 0 0 0 0 0 0 0 0 0 0
default_value=0 -9.9999996826552254e-21 0 0 0 0 0 1.7976931348623157e+308 0 0 0 0 0 0 0 0 0 1.7976931348623157e+308 0 0 1.7976931348623157e+308 0 0 0 0 0 0 1.7976931348623157e+308 1.7976931348623157e+308 0
left_child=2 3 8 4 21 -5 11 12 16 -6 13 15 17 -3 -15 28 22 -4 -11 -10 -14 29 24 25 -1 -24 -19 -20 -7 -2
right_child=1 10 7 5 9 6 -8 -9 19 18 -12 -13 20 14 -16 -17 -18 26 27 -21 -22 -23 23 -25 -26 -27 -28 -29 -30 -31
leaf_parent=24 29 13 17 5 9 28 6 7 19 18 10 11 20 14 14 15 16 26 27 19 20 21 25 23 24 25 26 27 28 29
leaf_value=0.0030938280186032863 0.019788198602550169 -0.0021939529208714293 -0.00020239454133853864 0.010326167192569402 0.02016639825839241 0.010806275813351616 0.013709563175216316 0.0075310955250288475 0.0016245511558915249 0.0086898469869261512 0.00061703558494187764 0.00027822827692196712 0.0089039192598676202 0.0039936412275353847 0.01155773457824167 0.012164827770474708 -0.0014356759892518384 0.0015949813863957358 0.016503189855517474 -0.0015698625544428952 -0.0020445226609556743 -0.002243225047122834 -0.00076480900720823095 0.0029221448248811905 0.00029516970696657666 0.0071407675756479305 0.0051395380033074688 0.0068963065604183173 0.0039515277254290248 0.0014061339811919488
leaf_count=5166 170 1052 10571 5804 2102 808 1120 2832 4097 1566 9835 2719 1857 3463 1524 1217 44376 9959 2553 163288 397 1016 71119 3345 30520 557 3710 428 5547 219
internal_value=0 0.12598940516399806 -0.01473470867543648 0.17727225553822998 0.25447020830916345 0.14115536261827075 0.10790711416703835 0.047646155642742008 -0.020407771512663438 0.30405273704214875 0.044354886699435513 0.089809917853972313 0.036638858226066967 0.096492560342568631 0.12610373799155944 0.120061253425279 -0.010234356119380433 0.027073096471036423 0.25815950424685069 -0.029833489345423292 0.13951111418966075 0.019826625714416606 -0.0028271337501791578 -0.01083442497561448 0.014006218125160844 -0.014067482628496645 0.051140691520061218 0.30247744320023584 0.09646135373766454 0.18878854006758691
internal_count=392937 41143 351794 25269 8054 17215 11411 29326 322468 6649 15874 10291 26494 6039 4987 7572 155083 24240 4547 167385 2254 1405 110707 75021 35686 71676 13669 2981 6355 389
shrinkage=0.05
has_categorical=0


Tree=17
num_leaves=31
split_feature=36 38 27 6 6 7 0 22 6 3 6 6 7 27 3 12 7 6 7 37 3 12 7 9 6 7 3 25 7 20
split_gain=658.33313470777455 155.44943542251815 113.50854520342801 63.58452266540894 84.566076999395307 33.766657485493909 32.933959703150663 32.830023359220945 27.339659288895746 26.376223838169061 23.912641491565374 22.654121842730966 22.465569097352045 22.071335379122786 20.479102569664974 19.553218105068808 18.583913915649738 19.286698392209516 16.007342761112266 15.981601481801132 15.450309850446303 15.342687292937569 14.707948231954029 14.529636871500557 12.913981742551741 12.681137555572931 12.212506895254279 11.999999241648197 11.560300489203883 11.513042793572993
threshold=1.5 9.9999996826552254e-21 2.5 0.84166666666666667 0.68333333333333335 36.5 9.9999996826552254e-21 5.5499999999999998 0.77500000000000002 15 0.84166666666666667 0.68333333333333335 8147 1.5 40 0.13663419913419914 2658.5 0.84166666666666667 8873.5 2.5 7.5 0.19139194139194138 2942 68.5 0.8833333333333333 20.5 40 0.10960960960960961 4.5 37.5
decision_type=0 0 0 0 0 0 0 0 0 0 0 0 0 0 0 0 0 0 0 0 0 0 0 0 0 0 0 0 0 0
default_value=0 -9.9999996826552254e-21 0 0 0 0 0 1.7976931348623157e+308 0 1.7976931348623157e+308 0 0 0 0 0 1.7976931348623157e+308 0 0 1.7976931348623157e+308 0 0 0 0 0 0 0 1.7976931348623157e+308 0 0 0
left_child=2 3 6 4 23 27 14 29 -6 15 11 -3 16 -13 18 -9 17 -4 19 -1 -8 -10 -18 25 -14 -2 -23 28 -5 -7
right_child=1 10 12 5 8 7 20 9 21 -11 -12 13 24 -15 -16 -17 22 -19 -20 -21 -22 26 -24 -25 -26 -27 -28 -29 -30 -31
leaf_parent=19 25 11 17 28 8 29 20 15 21 9 10 13 24 13 14 15 22 17 18 19 20 26 22 23 24 25 26 27 28 29
leaf_value=-0.00043863846846189285 0.023813111817135531 -0.0020842552691443111 0.0065966007300621941 0.012911217931742217 0.019158078285623575 0.010213694030467603 0.0015964702562336298 -0.0030113144806949549 0.0082553547755892399 0.0029493198398041938 0.00058618382964118463 0.0033703378500335788 0.010927732070041404 0.010213655849256211 -0.0012785246625594867 0.013205013059966781 -0.0032905204570153599 0.002170301892656587 0.0027666271002196171 0.0011381120623985804 -0.0014636621210430678 0.015678030056342676 0.0021501268961451867 0.017505147868444114 -0.0027241727299988274 -0.001629693604347093 0.0065514911105421098 0.016646105002057595 0.0076201278688948302 0.024624816735128039
leaf_count=91713 51 1052 4136 1416 2102 1571 4229 223 1566 8348 9835 3078 1294 1909 46793 1117 1833 6077 4869 19485 167311 2553 3854 121 200 1233 428 578 3810 152
internal_value=0 0.11968993471298725 -0.013997973410162262 0.16840864209490444 0.24174669591433837 0.1340975944352053 -0.018094697005180061 0.10251175873644272 0.28885009795189764 0.07989140892129093 0.042137142925557133 0.091667933020346565 0.064761620137840079 0.11979855190949854 -0.0079096197355257251 0.21012651431026744 0.053745321108485171 0.079256761424089522 -0.00078954896245098506 -0.0032469534204228922 -0.027764404852538727 0.24525152631505442 0.0079305963074886385 0.018835293673959915 0.18200335679563334 -0.012382297686698652 0.28735356544216623 0.19619717595804814 0.18107528423971023 0.22970035363440588
internal_count=392937 41143 351794 25269 8054 17215 334400 11411 6649 9688 15874 6039 17394 4987 162860 1340 15900 10213 116067 111198 171540 4547 5687 1405 1494 1284 2981 5804 5226 1723
shrinkage=0.05
has_categorical=0


Tree=18
num_leaves=31
split_feature=36 38 27 6 6 3 0 9 6 4 27 9 13 27 13 35 3 6 1 1 13 0 3 11 12 6 19 9 26 13
split_gain=594.14565400112258 140.29311483814456 103.77200223566712 57.3850347470202 76.320885610316566 32.29326295536805 31.917820247819478 28.101913998863495 24.674043233552254 24.632150209783035 22.524547995610682 20.589104256655901 17.878186834799564 17.017466857363008 17.169693729527197 16.220523066496664 14.988818573063455 14.861738169841095 19.225309876407177 25.827216110996297 14.436016227565204 15.406807342586632 14.29994258353544 14.174525082308998 13.84677655471441 13.698576627573079 13.504763419639595 13.112998807454389 12.85762497954677 12.060291613674046
threshold=1.5 9.9999996826552254e-21 3.5 0.84166666666666667 0.68333333333333335 25 9.9999996826552254e-21 185 0.77500000000000002 7.5 6.5 16.5 0.017524257571302555 9.9999996826552254e-21 0.069737787237968474 0.46049896049896055 40 0.84166666666666667 22.5 25.5 0.043056230756765512 9.5 7.5 9.5 0.19139194139194138 0.84166666666666667 4.5 68.5 0.51666666666666661 0.02558893998243969
decision_type=0 0 0 0 0 0 0 0 0 0 0 0 0 0 0 0 0 0 0 0 0 0 0 0 0 0 0 0 0 0
default_value=0 -9.9999996826552254e-21 0 0 0 1.7976931348623157e+308 0 0 0 0 0 0 1.7976931348623157e+308 0 0 1.7976931348623157e+308 0 0 0 0 0 1.7976931348623157e+308 0 1.7976931348623157e+308 0 0 0 0 0 0
left_child=2 3 6 4 27 7 9 11 -6 13 17 20 23 -1 -15 -13 28 18 -3 -20 21 -5 -8 -4 -10 -16 -7 -2 -14 -12
right_child=1 10 12 5 8 26 22 -9 24 -11 29 15 16 14 25 -17 -18 -19 19 -21 -22 -23 -24 -25 -26 -27 -28 -29 -30 -31
leaf_parent=13 27 18 23 21 8 26 22 7 24 9 29 15 28 14 25 15 16 17 19 19 20 21 22 23 24 25 26 27 28 29
leaf_value=-0.00028091157828967695 -0.00058815920249648929 0.0006565942361169806 0.014328805093012804 0.013270864099871053 0.018200174555338417 0.0033317662527682459 0.0015563427788472316 0.015367559530622913 0.0078425869495532992 -0.0013183822082003395 0.0024792085619413889 0.021427272716621024 0.0043117356965741765 0.00030487768035571757 0.0043132513744314231 0.0017823759116395105 3.7232148610003642e-05 -8.8855798007100682e-05 0.010336625222283229 -0.0013212362358952898 0.013173458770419776 0.0062436602453570392 -0.0013718204232868215 -0.0022428394444066395 0.013649294538131622 -7.1880616180214623e-05 0.016033782485734532 0.016629891417735864 0.0085669378886045408 0.0097046771417999677
leaf_count=93243 1284 2938 141 933 2102 6704 4275 1191 1566 45796 1031 111 6088 19341 5954 1969 1438 8344 1566 682 1335 4756 168950 1521 2981 2541 216 121 2506 1313
internal_value=0 0.11370543827020548 -0.013298074439022435 0.15998821017899631 0.22965936315379368 0.12739271403847827 -0.016482815394444753 0.16290203134170606 0.27440759541733245 -0.0066126838229568713 0.04003028623774766 0.14400495877014785 0.079324672177971706 0.00085928211480873604 0.022557184403945035 0.056614667707337786 0.095239499799218003 0.024351416219298431 0.066390844006658845 0.13599708171899422 0.16988363266118497 0.1479225323680709 -0.025991132357885593 -0.01673883606290846 0.23298895175355541 0.060031665774339646 0.074564907443575093 0.017893529473886796 0.11105095012703413 0.13053161360533216
internal_count=392937 41143 351794 25269 8054 17215 340100 10295 6649 166875 15874 9104 11694 121079 27836 2080 10032 13530 5186 2248 7024 5689 173225 1662 4547 8495 6920 1405 8594 2344
shrinkage=0.05
has_categorical=0


Tree=19
num_leaves=31
split_feature=38 38 30 13 6 12 30 7 3 19 26 13 3 7 13 3 13 25 7 7 7 12 3 7 7 7 7 25 6 6
split_gain=536.21645383596024 126.61453676080868 82.629045230697571 53.76416209059721 64.371075481508342 29.416920167075659 26.874349769523004 28.594388060562373 24.850196399041465 20.668813875690834 19.179004633003011 18.250668647253917 16.660373642385082 15.504952928168024 14.957592689824871 14.798693482693304 14.781079759214862 14.452953070508443 14.404312585903597 13.926505038707155 19.653359582339782 13.801727642670988 16.67249284355416 13.055350266436392 12.682213311994214 12.37186520870506 12.768885247273374 12.285192946497485 11.164765932604475 17.468452489659931
threshold=-9.9999996826552254e-21 9.9999996826552254e-21 3.5 0.02558893998243969 0.84166666666666667 0.10135135135135137 9.9999996826552254e-21 8147 25 1.5 0.51666666666666661 0.10225715830599294 25 8873.5 0.008547632963179428 40 0.0063903634136382196 0.45804195804195802 4.5 2696 1190.5 0.11920663114268798 40 386.5 1200.5 1544 82.5 0.36038961038961043 0.94166666666666665 0.72499999999999998
decision_type=0 0 0 0 0 0 0 0 0 0 0 0 0 0 0 0 0 0 0 0 0 0 0 0 0 0 0 0 0 0
default_value=0 -9.9999996826552254e-21 0 1.7976931348623157e+308 0 1.7976931348623157e+308 0 0 1.7976931348623157e+308 0 0 1.7976931348623157e+308 1.7976931348623157e+308 1.7976931348623157e+308 0 0 0 0 1.7976931348623157e+308 0 1.7976931348623157e+308 0 1.7976931348623157e+308 0 1.7976931348623157e+308 0 0 0 0 0
left_child=2 3 5 14 12 -1 11 27 17 15 -4 -7 -5 -14 16 28 23 18 -6 20 -10 22 -16 -2 -13 26 -20 -8 29 -3
right_child=1 9 10 4 8 6 7 -9 19 -11 -12 24 13 -15 21 -17 -18 -19 25 -21 -22 -23 -24 -25 -26 -27 -28 -29 -30 -31
leaf_parent=5 23 29 10 12 18 11 27 7 20 9 10 24 13 13 22 15 16 17 26 19 20 21 22 23 24 25 26 27 28 29
leaf_value=-0.0016498459122412951 -0.0017506538216884319 -0.0024092387225740915 0.002179412162549816 0.016275407195960597 0.016396260608592603 -0.0010815647776335558 3.7692728130946668e-05 0.0052165801577415648 0.0040475468785684107 0.0079652391613614735 0.0066474942217443879 -0.0004163839711162421 0.0099927633284303888 0.020405042391393628 0.016046776482991153 -0.0016280773078138024 0.018196586906013633 0.015918746163264965 0.0087013296387029229 -0.003721941885328576 0.015180048957053159 -0.00054800324168915516 -0.0019035587675477331 0.018529076065335957 0.0013420960189970427 0.016269890579485125 0.004539184031288882 0.0039595882960363803 0.00055394088524565548 0.0048854797326357705
leaf_count=75951 325 981 10090 2194 468 147398 41780 3070 4818 1291 3152 55689 3962 393 299 3219 266 598 4328 506 432 2766 228 105 12567 372 3209 2097 5361 5022
internal_value=0 0.10802016620303592 -0.012633170994479396 0.15198879962393186 0.17195974480276718 -0.015664173205218707 -0.010651095119060596 0.011030719714727605 0.13528805256282375 0.038028771601006234 0.064859040185872158 -0.015371138155599935 0.25444725409985169 0.21864757734585027 0.045450390647843716 0.027292480645136098 0.17864605206353912 0.16818017983004907 0.15745838723433705 0.084001248840907941 0.099271855277674542 0.017298498651085747 0.16561574077470478 0.064027464874955115 -0.0018524045642160588 0.14737133778804079 0.13858457272843908 0.0045026135962345833 0.044246907983550889 0.073867786208401315
internal_count=392937 41143 351794 25269 21280 338552 262601 46947 14731 15874 13242 215654 6549 4355 3989 14583 696 8975 8377 5756 5250 3293 527 430 68256 7909 7537 43877 11364 6003
shrinkage=0.05
has_categorical=0


Tree=20
num_leaves=31
split_feature=36 38 27 13 6 31 22 0 7 3 27 7 13 13 1 1 37 13 13 13 12 3 6 1 1 1 3 36 3 7
split_gain=483.93534378313063 114.26962100329524 87.093330444299966 48.5221555588613 58.094896437979969 26.751126897010344 22.472386171820773 22.081045570833354 22.043838737568905 22.608553996616514 19.715014510772484 19.708117856754683 19.160418133620105 18.319187627735396 16.424982897733855 23.697789716938814 15.190165541739139 14.304155063888185 13.49922680753386 13.339925074791342 12.472272867012213 15.642844429413735 12.462073953350814 17.450173346589303 13.51127248544578 13.626583665823539 12.123613753396974 11.969822074749224 11.803659907152593 11.78245282264534
threshold=1.5 9.9999996826552254e-21 1.5 0.02558893998243969 0.84166666666666667 8.5 4.5499999999999998 9.9999996826552254e-21 36.5 15 6.5 8147 0.10751847023033465 0.098339991734398682 19.5 24.5 2.5 0.056731274011501659 0.008547632963179428 0.0063903634136382196 0.1146543330087634 40 0.84166666666666667 11.5 25.5 22.5 40 2.5 7.5 386.5
decision_type=0 0 0 0 0 0 0 0 0 0 0 0 0 0 0 0 0 0 0 0 0 0 0 0 0 0 0 0 0 0
default_value=0 -9.9999996826552254e-21 0 1.7976931348623157e+308 0 1.7976931348623157e+308 1.7976931348623157e+308 0 0 1.7976931348623157e+308 0 0 1.7976931348623157e+308 1.7976931348623157e+308 0 0 0 1.7976931348623157e+308 0 0 0 1.7976931348623157e+308 0 0 0 0 1.7976931348623157e+308 0 0 0
left_child=2 3 7 18 14 11 -6 16 -8 12 22 17 -10 -11 -5 -16 -1 -4 19 29 21 -20 23 -3 25 -25 -13 -27 -9 -2
right_child=1 10 5 4 6 -7 8 28 9 13 -12 26 -14 -15 15 -17 -18 -19 20 -21 -22 -23 -24 24 -26 27 -28 -29 -30 -31
leaf_parent=16 29 23 17 14 6 5 8 28 12 13 10 26 12 13 15 15 16 17 21 19 20 21 22 25 24 27 26 27 28 29
leaf_value=-0.00061923738477280858 -0.0016631212005248437 -0.0013267424957788532 -0.00028204394196248327 0.0086390530573620828 0.012078393086610822 0.0066276246130645353 0.0081732498864456066 0.0014151451882354104 -0.0037177822630231581 0.0065514345771827262 0.0060398266158851804 0.0076825307115439001 0.013658930864776734 0.00099650615068482364 0.016022368522569799 0.007377972246635528 0.00074888511660647407 0.0021672505657250258 0.015735396755800848 0.017286757648663414 -0.00050322532390973133 -0.0018083807179018073 -0.00012337218118208253 0.002710813862335377 -0.0013882842204394228 0.0077166255938280921 -0.00194382267659272 0.019769734756440904 -0.0013020854307840782 0.017602621543975103
leaf_count=131079 325 1609 10571 2262 1571 2832 5482 4097 192 2264 2344 1857 913 4309 3237 1050 24004 13669 287 266 2778 228 8344 1329 682 1322 397 244 163288 105
internal_value=0 0.10261915748695306 -0.012001512163365197 0.14438935952497192 0.16336175730255872 0.040173809115009507 0.12852364942996908 -0.016746458861361949 0.11502878183674486 0.080445904066380067 0.036127332156305578 0.03029925522845903 0.21279257348489977 0.058196844320835522 0.24172489168507796 0.27810253215080821 -0.0081495429956362931 0.021982393954133633 0.043177871756847716 0.16971374731296782 0.016433574949359226 0.15936885690226138 0.021458846925092201 0.059954984283101316 0.098859693040628152 0.1286899201288845 0.11974056724693623 0.19189264770896955 -0.024711542370662854 0.060826087067293567
internal_count=392937 41143 351794 25269 21280 29326 14731 322468 13160 7678 15874 26494 1105 6573 6549 4287 155083 24240 3989 696 3293 515 13530 5186 3577 2895 2254 1566 167385 430
shrinkage=0.05
has_categorical=0


Tree=21
num_leaves=31
split_feature=36 38 27 8 7 3 4 7 34 7 8 40 7 8 27 22 7 7 7 32 7 3 7 27 3 39 7 0 3 3
split_gain=436.75165538635582 103.12833281623335 78.633096754347832 46.74568171436249 47.301953173169466 39.558909400720637 26.069390459224607 27.23309972643866 22.668328613622862 21.390977436442597 20.171145659683262 19.988801827744908 17.087927852275527 16.868664549581325 16.42053065943356 16.357588258243766 16.437866050355353 16.345074024040848 15.09227115070866 13.92078336574329 13.717809006206799 12.882685550807278 12.467557658872449 12.407073716523126 11.436296544659061 11.418944852642937 10.942312165069756 10.880796430450225 10.707843426796906 10.248454431790361
threshold=1.5 9.9999996826552254e-21 3.5 59.5 750 40 7.5 922.5 0.78647416413373861 8873.5 59.5 1.5 870 6.5 8.5 6.8452380952380949 4.5 8147 2300.5 0.99152542372881358 2658.5 7.5 2783.5 1.5 40 9.9999996826552254e-21 1180 9.9999996826552254e-21 40 40
decision_type=0 0 0 0 0 0 0 0 0 0 0 0 0 0 0 0 0 0 0 0 0 0 0 0 0 0 0 0 0 0
default_value=0 -9.9999996826552254e-21 0 0 0 1.7976931348623157e+308 0 0 1.7976931348623157e+308 0 0 0 0 1.7976931348623157e+308 0 1.7976931348623157e+308 0 0 0 0 0 0 0 0 0 -9.9999996826552254e-21 0 0 0 0
left_child=2 3 6 4 8 -5 7 12 -2 19 26 15 21 -6 24 -10 -17 20 23 27 28 -1 -22 -7 -12 -18 -3 -9 -4 -23
right_child=1 10 17 5 13 18 -8 9 11 -11 14 -13 -14 -15 -16 16 25 -19 -20 -21 22 29 -24 -25 -26 -27 -28 -29 -30 -31
leaf_parent=21 8 26 28 5 13 23 6 27 15 9 24 11 12 13 14 16 25 17 18 19 22 29 22 23 24 25 26 27 28 29
leaf_value=0.0028372347238522083 -0.0036838807861396777 0.0012199302782021405 0.0050718211098777673 0.013539822902128082 0.026547621434385129 0.0032171551585197448 -0.0013191139672004042 -0.00049589172062442552 0.012685939232324498 0.0030601311997040378 0.0049877346496665954 0.0033551990051867292 0.0088872905605565915 -0.0014662957682600643 0.01399474153780883 0.011957754270328929 0.0046473055037171262 0.0097084091509170023 -0.0013781682932903754 0.003970014374435271 -0.0039185681450078147 0.00041764414894129967 0.0023645318577851619 0.019607986116678872 -0.0031463208579225466 0.0078994130328109893 -0.0038607275332598126 -0.0013553090373539696 -0.0002092571228171475 -0.0013108368435689902
leaf_count=4802 514 10978 5856 3935 55 275 115504 75832 1513 3554 2770 3127 589 2340 441 1577 4739 961 724 1474 1135 56633 2594 199 512 6271 1173 71606 1148 10106
internal_value=0 0.097488200275828968 -0.01140143684213072 0.1371698921851584 0.11545409624552502 0.2223577486122883 -0.014173714369480679 -0.0078951604824220815 0.13326215773500025 -0.015469050465742398 0.034320966254357009 0.13943659574262235 0.0081142767863553421 -0.01645939806962312 0.09872033155247821 0.15547802050168633 0.14366914816108983 0.069225516044111854 0.063253974315021597 -0.017298930737515067 0.058038531700290615 0.0067176933757768856 0.0090427503057701336 0.20197075551949473 0.074376043268251826 0.12999237041030551 0.014589352641904927 -0.018265673691607288 0.084124378190891261 0.0031181539866897636
internal_count=392937 41143 351794 25269 20136 5133 340100 224596 17741 152466 15874 17227 72130 2395 3723 14100 12587 11694 1198 148912 10733 71541 3729 474 3282 11010 12151 147438 7004 66739
shrinkage=0.05
has_categorical=0


Tree=22
num_leaves=31
split_feature=36 38 27 6 6 3 31 35 12 6 32 6 13 9 13 0 0 3 27 37 12 6 9 6 9 13 3 27 13 32
split_gain=394.16836701887155 93.073318324235061 72.675066894949808 41.814257958304268 54.492221510754518 24.198610854122535 23.06519990838882 20.789608227579947 20.357934850003588 20.036377284969149 17.756079651713225 17.327297285589836 22.068589860528121 21.786762225091707 16.355332811500084 14.905564168345258 12.186975964372429 11.942587293710311 11.685107241968737 11.542975551406577 11.019968766855413 10.737515433017705 10.638604694789876 10.610739915704503 12.332279549291556 10.564059436274924 10.435966010550146 10.489620311590933 10.224183977109151 9.8049721157828387
threshold=1.5 9.9999996826552254e-21 1.5 0.84166666666666667 0.68333333333333335 25 8.5 0.85960591133004915 0.10135135135135137 0.77500000000000002 0.72077922077922074 0.84166666666666667 0.069737787237968474 46.5 0.10225715830599294 9.5 9.9999996826552254e-21 40 37.5 2.5 0.23040808956301917 0.84166666666666667 305 0.8833333333333333 185 0.013715163484748738 40 12.5 0.13175823357652394 0.4891304347826087
decision_type=0 0 0 0 0 0 0 0 0 0 0 0 0 0 0 0 0 0 0 0 0 0 0 0 0 0 0 0 0 0
default_value=0 -9.9999996826552254e-21 0 0 0 1.7976931348623157e+308 1.7976931348623157e+308 0 1.7976931348623157e+308 0 0 0 1.7976931348623157e+308 0 0 1.7976931348623157e+308 0 0 0 0 0 0 0 0 0 1.7976931348623157e+308 1.7976931348623157e+308 0 0 0
left_child=2 3 8 4 -2 7 11 22 -1 -6 17 12 13 -4 16 -9 -10 -3 -7 -14 -11 -12 -5 24 28 -17 -22 -28 -16 -8
right_child=1 10 6 5 9 18 29 15 14 20 21 -13 19 -15 23 25 -18 -19 -20 -21 26 -23 -24 -25 -26 -27 27 -29 -30 -31
leaf_parent=8 4 17 13 22 9 18 29 15 16 20 21 11 19 13 28 25 16 17 18 19 26 21 22 23 24 25 27 27 28 29
leaf_value=-0.0014842218123511707 0.00054231590846573333 0.0018330480933285338 0.0069818104009428429 0.0080720883022611326 0.01541665286662236 0.0026425059787553162 0.0039534457056411626 0.010991433542589897 -0.00031974428580576627 0.0064977692013936349 0.011074868327432593 -0.00011964138443912791 0.0032901771772791246 -0.00039953098353619204 0.0028261557106843771 -0.0028244062334754471 -0.0010615887183626719 -0.0016491958309752333 0.024446939977426682 0.0078335341487069977 0.012856144803223639 0.0030001037841276921 0.014806110045927412 -0.00078777124394816293 0.0027796886828759778 0.004347751662135124 0.0011014144367551151 0.023194433441237797 -0.00084583276104853292 0.010106353468062754
leaf_count=74320 1405 11027 1169 4266 2102 6858 1830 759 113555 1818 726 11127 5411 6902 2585 589 108030 3170 62 1885 2301 951 680 8804 8065 4001 365 63 7109 1002
internal_value=0 0.092613789950200753 -0.010831365053710896 0.13031139685044263 0.18978385238043052 0.10248733894521332 0.036829882165023156 0.13322576146903925 -0.015165791216730467 0.22759513762131151 0.032604918288224455 0.027660817092361473 0.049422182712182496 0.013391583472519852 -0.010817476103768155 0.090014122966952048 -0.013628358563927453 0.021110193056198143 0.056757272488163042 0.089280045440159078 0.19027138410628905 0.1299159583115265 0.17995828357734181 0.012630530143056304 0.026702828584064253 0.068548057205601712 0.23045258166677307 0.087068484869794308 0.0026667782418508248 0.12260855802487435
internal_count=392937 41143 351794 25269 8054 17215 29326 10295 322468 6649 15874 26494 15367 8071 248148 5349 221585 14197 6920 7296 4547 1677 4946 26563 17759 4590 2729 428 9694 2832
shrinkage=0.05
has_categorical=0


Tree=23
num_leaves=31
split_feature=38 38 27 8 7 3 32 34 7 13 13 40 8 8 22 7 3 8 9 27 3 7 7 0 31 13 37 7 3 12
split_gain=355.73695026678854 83.998672654589996 65.589247891386634 38.790581300335873 40.790394240962456 33.011815698698314 21.59296672505517 20.182809689147689 18.434830810970993 20.066651696528695 19.108682586181217 18.116354951399728 17.600900882052315 14.643616180007585 14.374187022043884 14.763413204358415 14.356453694188986 14.5576455636958 17.534303751560646 14.327984062667724 13.968651567144899 13.498345698666121 11.62479440009966 11.567054542737377 11.005744901896371 10.900389912379438 10.387399231984261 9.8583212791789663 9.8268149675685112 9.5116848821726876
threshold=-9.9999996826552254e-21 9.9999996826552254e-21 1.5 59.5 750 40 0.56349206349206349 0.78647416413373861 632.5 0.006637980409146314 0.15831244778613199 1.5 59.5 6.5 6.8452380952380949 4.5 40 337.5 46.5 8.5 7.5 2300.5 673.5 9.9999996826552254e-21 8.5 0.21455026455026455 1.5 1180 40 0.076997183933600111
decision_type=0 0 0 0 0 0 0 0 0 0 0 0 0 0 0 0 0 0 0 0 0 0 0 0 0 0 0 0 0 0
default_value=0 -9.9999996826552254e-21 0 0 0 1.7976931348623157e+308 0 1.7976931348623157e+308 0 1.7976931348623157e+308 1.7976931348623157e+308 0 0 1.7976931348623157e+308 1.7976931348623157e+308 0 0 1.7976931348623157e+308 0 0 0 0 0 0 1.7976931348623157e+308 0 0 0 0 0
left_child=2 3 8 4 7 29 16 -2 20 -10 26 14 27 -6 -9 -16 17 18 22 28 -1 23 -4 -7 -8 -17 -11 -3 -14 -5
right_child=1 12 6 5 13 21 24 11 9 10 -12 -13 19 -15 15 25 -18 -19 -20 -21 -22 -23 -24 -25 -26 -27 -28 -29 -30 -31
leaf_parent=20 7 27 22 29 13 23 24 14 9 26 10 11 28 13 15 25 16 17 18 19 20 21 22 23 24 25 26 27 28 29
leaf_value=0.0029081633699471576 -0.0037357192964869255 0.0010926854638744191 0.0027586098456414908 0.0019807181760387602 0.024577434496446091 0.016539310017448457 0.0036255898639039074 0.011687050382092704 0.01058385137518247 -0.0013338857156853018 0.0017886990898511432 0.0028757773720974127 0.0045958091833692592 -0.0015235962562708772 0.011053538997583778 0.0056153115967705336 -0.0015953604423387319 0.0033954077432677534 -0.00041661800397603473 0.013018430509264507 -0.00026864777530846132 -0.0014916584101500431 0.012238005629789404 0.00086190644222470473 0.0096058453941729183 0.015201399893057153 -0.00061647828769142727 -0.0037297550506273703 -0.0029441816346661657 0.012868932251756691
leaf_count=3590 514 10978 2966 212 55 257 3606 1513 375 136777 6011 3127 2770 2340 1577 10705 3956 7816 9641 441 95766 724 363 217 978 305 79949 1173 512 3723
internal_value=0 0.087983100393066879 -0.010289796726978915 0.12379582755946071 0.10401392095738168 0.20139732207328562 0.034988388137271093 0.12055089562286365 -0.014407501582434326 -0.019453090345847985 -0.019842220998562001 0.12637700317020431 0.030974671341308917 -0.018483977806841904 0.14164861821008068 0.13057880131882196 0.023308608585354457 0.033817305485263176 0.01327342894287319 0.09113133653273929 -0.0030772205708925093 0.056054685868086519 0.075845195829295373 0.18724204103151956 0.09802964155645115 0.11761732536023796 -0.021384763171648113 0.012542997857011715 0.068391044734818843 0.24564649060538946
internal_count=392937 41143 351794 25269 20136 5133 29326 17741 322468 223112 222737 17227 15874 2395 14100 12587 24742 20786 12970 3723 99356 1198 3329 474 4584 11010 216726 12151 3282 3935
shrinkage=0.05
has_categorical=0


Tree=24
num_leaves=31
split_feature=36 38 27 6 6 37 22 1 1 8 34 8 30 8 40 4 27 1 4 12 4 8 30 1 1 6 1 37 1 4
split_gain=321.05259447460185 75.808801103743065 60.428071966492176 36.768921434434731 45.691646234337128 22.604919680765896 21.171090786046562 18.492351061943509 21.023388535593085 15.884813035219366 14.297422470025346 24.538539068543972 14.251785420352022 13.257663315164805 13.081617818061218 14.096464981489419 12.931005753577324 12.080202067301748 11.279926472446547 10.752169503109258 10.518459574514523 9.937809705941973 9.6543737658859357 9.3271960483563507 12.549344253997308 11.091801112403342 16.934489444623591 9.3301173523153551 9.2913102420995237 9.2621299319794446
threshold=1.5 9.9999996826552254e-21 3.5 0.84166666666666667 0.68333333333333335 1.5 4.5499999999999998 19.5 24.5 59.5 0.73508771929824557 247 1.5 684 1.5 3 8.5 13.5 7.5 0.30384615384615388 40 8.5 35.5 10.5 25.5 0.84166666666666667 22.5 3.5 15.5 7.5
decision_type=0 0 0 0 0 0 0 0 0 0 0 0 0 0 0 0 0 0 0 0 0 0 0 0 0 0 0 0 0 0
default_value=0 -9.9999996826552254e-21 0 0 0 0 1.7976931348623157e+308 0 0 0 0 0 0 0 0 1.7976931348623157e+308 0 0 0 1.7976931348623157e+308 1.7976931348623157e+308 0 1.7976931348623157e+308 0 0 0 0 0 0 0
left_child=2 3 5 4 -2 20 22 17 19 23 -7 -12 14 -4 15 -8 -11 -6 -17 -9 29 -20 -5 -3 25 26 -25 -28 -27 -1
right_child=1 9 13 6 7 10 12 8 -10 16 11 -13 -14 -15 -16 18 -18 -19 21 -21 -22 -23 -24 24 -26 28 27 -29 -30 -31
leaf_parent=29 4 23 13 22 17 10 15 19 8 16 11 11 12 13 14 18 16 17 21 19 20 21 22 26 24 28 27 27 28 29
leaf_value=-0.00073501240275662422 0.00047614388061800039 -0.0013276874246187958 0.0026038884118354602 0.0083645633042721112 0.0097572170360297941 -0.0003518687200177746 0.0078756567691757907 0.0030564951564313152 0.0059904812318770997 0.0032485746110560766 0.00026480182331060448 0.0043622171064087115 0.002425217799266802 0.0094671059786243014 0.0010834586180842212 0.00030106045194359997 0.012367509018266554 0.0023038659419082064 0.013681473732415567 0.01489838658566927 0.00097304719211879385 -0.0013991793169628216 0.019577557882761845 0.0015687543711153239 -0.0016794337285508804 0.003183335264357354 0.0062360521942437545 0.016430548654453269 -0.0018352070006623083 -0.0014316750374670033
leaf_count=128405 1405 4150 10942 1555 1331 102932 4655 204 1019 3282 21409 4406 7534 752 1402 1338 441 919 354 3176 7031 158 219 1062 2144 2387 493 412 1503 75917
internal_value=0 0.083583944884977932 -0.0097753069223526588 0.11760603547605754 0.17337519744504082 -0.012205570530451964 0.091514555342558201 0.20799882646668566 0.24571539524110184 0.029425937631230248 -0.0017599602760104791 0.019282642499394549 0.079627967614324183 0.060904755769162093 0.10928337295298572 0.12816655653930462 0.086574769543602423 0.1342587437828382 0.054324218961032664 0.28367337756211586 -0.018568579257219872 0.18055356910917908 0.19497611177528723 0.01191584782711852 0.03186945671674505 0.055830910273337704 0.11702874346234257 0.21754165253915839 0.024885887681365321 -0.019877227258478951
internal_count=392937 41143 351794 25269 8054 340100 17215 6649 4399 15874 128747 25815 15441 11694 7907 6505 3723 2250 1850 3380 211353 512 1774 12151 8001 5857 1967 905 3890 204322
shrinkage=0.05
has_categorical=0


Tree=25
num_leaves=31
split_feature=36 27 13 6 22 12 30 0 13 30 13 13 37 8 13 6 9 4 8 13 29 36 6 4 37 12 9 34 37 9
split_gain=289.74996850197516 54.536334046651774 44.966361162364819 47.911472045374126 36.766456782406635 21.044581451236162 18.762678502360203 18.627677335192729 17.335396436651564 16.436174045477131 13.04294025562703 12.64224147243676 12.497957099435872 12.380617142388923 11.619154336192077 11.499676292626262 11.000449551721488 13.190969072708143 9.7310853725035873 9.3266865529872671 9.0592707499894232 8.5282627986568116 8.5780095705708135 8.2517991765189969 7.6922347343719366 7.6673314837471196 12.54722881995724 8.6340257373573479 8.488263426686359 7.6298297252011249
threshold=1.5 3.5 0.027621678505656406 0.77500000000000002 5.4142857142857146 0.10135135135135137 35.5 9.9999996826552254e-21 0.083516886930983844 7.5 0.017524257571302555 0.008547632963179428 2.5 439.5 0.0063903634136382196 0.95833333333333337 209 7.5 70.5 0.10225715830599294 4.5 15.5 0.8833333333333333 15 4.5 0.086845607808340719 428 0.84412955465587047 3.5 456
decision_type=0 0 0 0 0 0 0 0 0 0 0 0 0 0 0 0 0 0 0 0 0 0 0 0 0 0 0 0 0 0
default_value=0 0 1.7976931348623157e+308 0 1.7976931348623157e+308 1.7976931348623157e+308 0 0 0 1.7976931348623157e+308 1.7976931348623157e+308 0 0 0 0 0 0 1.7976931348623157e+308 0 1.7976931348623157e+308 0 0 0 0 0 1.7976931348623157e+308 0 1.7976931348623157e+308 0 0
left_child=1 5 11 8 6 -1 20 9 16 13 -3 14 -12 -7 -2 25 17 -4 -13 -11 21 22 -5 -19 -16 -6 27 -27 29 -28
right_child=2 10 3 4 15 7 -8 -9 -10 19 12 18 -14 -15 24 -17 -18 23 -20 -21 -22 -23 -24 -25 -26 26 28 -29 -30 -31
leaf_parent=5 14 10 17 22 25 13 6 7 8 19 12 18 12 13 24 15 16 23 18 19 20 21 22 23 24 27 29 27 28 29
leaf_value=-0.0013059222716793936 0.00085066006302833563 -0.0012095796029508185 0.010385034789296914 0.011066218525537203 -0.00041051389459298063 0.00074027731262769772 0.024151349553936406 -0.00081228657217971827 0.014215223076095461 -0.00055547313748529736 0.0023562416418950851 -0.0011334806723932785 0.0061330801411582309 0.0040276934980622596 0.0070956309664933414 0.00067731844940011933 -0.0020991626705457694 -0.0041083901056221559 0.0096404954004998614 0.00041790413753143218 0.014196805533276026 0.025057203358127958 0.0047312937869594014 0.0098901091688653325 0.021505418711138848 -0.0044774891440699125 0.013784761359477374 0.0037497137014422914 0.012077048033577939 0.0034563804877643274
leaf_count=77143 625 1662 1844 733 1038 23896 190 123981 1444 75259 6801 5426 3231 3254 305 3392 274 294 218 36567 498 63 1972 164 133 324 217 20243 730 1016
internal_value=0 -0.0092865412268952115 0.079404748294427258 0.093994694745163976 0.080434204693560316 -0.0115952916354734 0.17754061868914436 -0.0073346723956435244 0.19659565628983489 0.00061491610758000563 0.057859517774083213 0.004495042617139366 0.071452913362461554 0.02268565842007076 0.10453529017412315 0.067986142127954285 0.14742969559297336 0.1699749380026456 -0.014346697842299642 -0.0047435931280550344 0.15976890688448397 0.13742957614642176 0.12895859169761706 0.018083459067292609 0.22942411567862719 0.075821330115510163 0.079692826303333061 0.072402147105185638 0.15607968268045891 0.10548217016342493
internal_count=392937 351794 41143 34436 30416 340100 3456 262957 4020 138976 11694 6707 10032 27150 1063 26960 2576 2302 5644 111826 3266 2768 2705 458 438 23568 22530 20567 1963 1233
shrinkage=0.05
has_categorical=0


Tree=26
num_leaves=31
split_feature=38 38 32 8 7 3 4 7 7 7 7 7 9 37 19 4 3 35 8 3 7 7 13 3 4 0 4 3 3 7
split_gain=261.49934644557453 68.07925768713153 49.950865274192523 30.244764890910574 33.329857127428937 27.4037303044108 22.776707469424636 27.573417428093371 18.790341769811739 18.365732290728292 15.089530869783715 15.866967144446392 30.875640266777594 14.305012007091879 13.730518414195203 12.832177085227983 16.934368756158015 13.030808971462797 12.37823727902768 14.114003145484562 11.660884487812643 11.476992966796846 11.362976874710078 11.219124043740635 14.831469528374377 10.210038811105035 9.9697208465849627 9.9423401430615481 9.9071334757728557 9.1667283961094697
threshold=-9.9999996826552254e-21 9.9999996826552254e-21 0.56349206349206349 59.5 680.5 40 7.5 922.5 8873.5 870 36.5 384.5 187 2.5 1.5 3 40 0.51315789473684204 43.5 40 2300.5 137.5 0.16158951204917585 25 7.5 9.9999996826552254e-21 7.5 40 40 32.5
decision_type=0 0 0 0 0 0 0 0 0 0 0 0 0 0 0 0 0 0 0 0 0 0 0 0 0 0 0 0 0 0
default_value=0 -9.9999996826552254e-21 0 0 0 1.7976931348623157e+308 0 0 0 0 0 0 1.7976931348623157e+308 0 0 0 0 1.7976931348623157e+308 1.7976931348623157e+308 0 0 0 0 1.7976931348623157e+308 0 0 0 0 0 0
left_child=2 3 6 4 10 -5 7 9 22 13 23 15 -13 28 27 17 26 -12 19 -6 25 -19 -9 -2 -25 -7 -17 -3 -1 -8
right_child=1 14 -4 5 18 20 29 8 -10 -11 11 12 -14 -15 -16 16 -18 21 -20 -21 -22 -23 -24 24 -26 -27 -28 -29 -30 -31
leaf_parent=28 23 27 2 5 19 25 29 22 8 9 17 12 12 13 14 26 16 21 18 19 20 21 22 24 24 25 26 27 28 29
leaf_value=0.00042667450374830955 0.0087397202748216319 0.0014628953298941303 0.0042703906060037513 0.010825681618995862 0.023933206829759811 0.015028414739013183 0.00015438374234287583 -0.00075897005624555875 0.0028534418451408344 0.0089364382133669696 0.014754406069381248 0.014686353792663382 -0.0033849038296576706 0.0019896890013414241 0.0061479030077444506 0.010412119343876839 0.0019883764088350683 0.0036177450957922287 -0.0022585059931434031 0.0013538512474168902 -0.0018026725476535646 -0.00086303082252015212 0.0023665838420205195 0.0027251493500095071 0.010584164858231857 0.00029930685934383204 -0.0023573272547425606 -0.0016849374229047341 -0.001368097953002541 -0.0012484747869551842
leaf_count=52750 4124 11364 5537 3935 99 257 13137 148425 3819 648 193 833 330 13004 1291 1600 1514 3091 2173 230 724 2658 2966 2311 811 217 169 3219 9001 102507
internal_value=0 0.075434510696986215 -0.0088222143277362393 0.10767551698343468 0.090208042818900491 0.1761978352723613 -0.010329047854398607 -0.0045856903455371734 -0.012207144966976528 0.0111023588274878 0.10553296786902293 0.081101720271188116 0.19117307730871136 0.0096493200912825452 0.024111719475349177 0.067224973579086258 0.11740118505712911 0.039502236742597764 -0.017801440927645951 0.16296494000316752 0.043774912385689792 0.03092194873833785 -0.01395470575170442 0.14055805758007844 0.09533361850030754 0.16570684288624471 0.18384400954382646 0.015361076547468362 0.0033012681244829903 -0.021782239591030525
internal_count=392937 41143 351794 25269 20136 5133 346257 230613 155210 75403 17634 10388 1163 74755 15874 9225 3283 5942 2502 329 1198 5749 151391 7246 3122 474 1769 14583 61751 115644
shrinkage=0.05
has_categorical=0


Tree=27
num_leaves=31
split_feature=38 38 27 8 8 13 37 34 40 12 37 27 9 39 23 13 9 31 0 24 39 8 8 4 30 4 8 0 37 1
split_gain=236.00316111442964 61.441530642432951 47.033913760806669 27.295900937463614 25.760979412289572 17.832118878446384 20.218040657084146 16.757981632905626 16.408391809015114 15.762644260149273 14.773872179721934 14.233311799809217 12.0015022619642 11.96219880639282 11.377699653276835 10.85209924046428 16.799974989247715 10.21213034415921 9.9391988010154417 9.4365937112002598 9.3071213110877835 9.0923053484353531 9.0468768709556571 8.6095729452634231 8.2900193148915235 8.2014857205293481 8.1015491855678494 8.0838411203859764 7.8312474650271051 7.779326274167488
threshold=-9.9999996826552254e-21 9.9999996826552254e-21 1.5 59.5 43.5 0.030418690724034241 2.5 0.78647416413373861 1.5 0.076997183933600111 1.5 6.5 11.5 9.9999996826552254e-21 1.5 0.058589483538773607 49.5 7.5 1.5 9.5 9.9999996826552254e-21 20.5 14.5 40 36.5 15 337.5 6.5 54.5 13.5
decision_type=0 0 0 0 0 0 0 0 0 0 0 0 0 0 0 0 0 0 0 0 0 0 0 0 0 0 0 0 0 0
default_value=0 -9.9999996826552254e-21 0 0 0 1.7976931348623157e+308 0 1.7976931348623157e+308 0 0 0 0 0 -9.9999996826552254e-21 1.7976931348623157e+308 0 0 1.7976931348623157e+308 0 1.7976931348623157e+308 -9.9999996826552254e-21 0 0 1.7976931348623157e+308 0 1.7976931348623157e+308 0 1.7976931348623157e+308 0 0
left_child=2 3 10 4 7 12 17 -2 13 -5 23 20 -4 14 -9 -6 -17 -7 -12 -11 26 28 29 -1 25 -21 -3 -16 -10 -15
right_child=1 11 5 9 15 6 -8 8 21 19 18 -13 -14 22 27 16 -18 -19 -20 24 -22 -23 -24 -25 -26 -27 -28 -29 -30 -31
leaf_parent=23 7 26 12 9 15 17 6 14 28 19 18 11 12 29 27 16 16 17 18 25 20 21 22 23 24 25 26 27 28 29
leaf_value=-0.00091342021623764267 -0.0041057037140881754 0.00054574421064518383 0.0034925927946773856 -0.0010722672543888891 -0.0024167410195784977 0.00082296926156989801 0.0046237479768139337 0.012882461204387985 0.0010350227943011399 0.012788499335948063 0.00017758732560538846 0.00474238498168187 -0.0018759320323971031 0.0096569984339452599 0.008548686992082305 0.016973270819175476 -0.00091561710907389301 0.0047651028049818297 -0.00078247130386116341 0.0089800042885495781 -0.0042526467949607349 0.012818033691081738 0.012765439030196932 0.00090534241526853988 -0.014278604764313925 0.001370434768831552 0.0056656977974842366 0.0030583295419609269 0.034117107590039573 0.0057901357240582197
leaf_count=196224 497 11754 1300 407 1848 14862 6091 364 2900 1311 78438 2344 5226 1707 771 204 368 1847 41076 2971 949 180 675 6730 42 402 827 5140 18 5464
internal_value=0 0.071662785340379134 -0.0083811035937522149 0.10229174145702119 0.085697640811215628 0.029961203576894409 0.043153827169321868 0.098917274804628974 0.10414246677256772 0.16738794457487444 -0.011868043383394544 0.022906133449776385 -0.016130095520155253 0.11860142576779753 0.086055991697121428 -0.01107882027445007 0.10928671856547569 0.025174593388297639 -0.003047541983627975 0.18365014281708761 0.010442642604619683 0.038237056839823952 0.14463030657247411 -0.017062192817708238 0.15596372543630976 0.16146165145775915 0.017645989238443609 0.075489262448230829 0.024781864565414792 0.13421223796680704
internal_count=392937 41143 351794 25269 20136 29326 22800 17716 17219 5133 322468 15874 6526 14121 6275 2420 572 16709 119514 4726 13530 3098 7846 202954 3415 3373 12581 5911 2918 7171
shrinkage=0.05
has_categorical=0


Tree=28
num_leaves=31
split_feature=36 38 32 6 6 34 7 7 13 6 3 7 6 32 7 7 3 37 7 13 13 13 7 6 7 46 21 7 13 13
split_gain=212.99285146296043 55.450980719097572 42.719571692757853 28.714789111908232 31.831356723504285 22.793461605149155 21.899273264339804 20.778584735587856 19.561611655536044 14.950206052242748 14.516334371294352 14.315572503693346 12.838743910889509 13.735019755846732 12.714353330495989 12.552108724439398 18.512985575121611 12.166425120321712 12.013819514978302 11.585984503843193 10.789945413941894 10.567293346227771 13.013487287343491 9.3062867158939753 9.1227996419110227 9.0539382673553064 9.0221387052698034 9.6558940368420814 9.6354305863616876 11.390959678144762
threshold=1.5 9.9999996826552254e-21 0.42222222222222222 0.84166666666666667 0.68333333333333335 0.84412955465587047 8147 36.5 0.19813084112149532 0.77500000000000002 40 384.5 0.84166666666666667 0.60681818181818181 632.5 2658.5 40 2.5 12427 0.006637980409146314 0.15831244778613199 0.13059629175011306 532.5 0.84166666666666667 2942 9.9999996826552254e-21 12.5 82.5 0.096384114968030371 0.066361196158201574
decision_type=0 0 0 0 0 0 0 0 0 0 0 0 0 0 0 0 0 0 0 0 0 0 0 0 0 0 0 0 0 0
default_value=0 -9.9999996826552254e-21 0 0 0 0 0 0 0 0 0 0 0 0 0 0 0 0 0 1.7976931348623157e+308 1.7976931348623157e+308 0 0 0 0 0 0 0 0 0
left_child=2 3 5 4 -2 14 15 -5 10 25 11 26 13 -3 -1 16 17 -7 -8 -16 -21 22 -13 -4 -17 -6 27 -9 29 -29
right_child=1 12 23 7 9 6 18 8 -10 -11 -12 21 -14 -15 19 24 -18 -19 -20 20 -22 -23 -24 -25 -26 -27 -28 28 -30 -31
leaf_parent=14 4 13 23 7 25 17 18 27 8 9 10 22 12 13 19 24 16 17 18 20 20 21 22 23 24 25 26 29 28 29
leaf_value=-0.00015208115625173397 0.00048501865454415839 0.0020143487719197599 0.005358385182624107 0.0061416791243636554 0.013322121098535681 0.00094558613481085139 0.0059588217348938008 0.0043745744987788611 0.010646307898964598 0.0071559914028301117 -0.0011665522845850575 0.012521056191481124 -2.6210643423046022e-05 0.0093033402525495908 0.0088632158361008906 -0.002710475250172855 -0.0010194569000014145 0.0037323321544587007 0.00047909413770951843 -0.00094771879199586251 0.0014320160923157587 0.01270243599708617 0.0025471191714042983 0.0012596408435545789 -0.00023247412089764973 0.0021633585145817468 0.025856138334462521 0.00055442622909423838 -0.0053834011606957721 0.017182243134930868
leaf_count=87714 1405 5303 3687 5804 1901 17933 2641 1815 687 4547 2780 409 9835 736 305 4771 10047 5011 1610 194206 4883 493 1632 2218 16768 201 38 2754 696 107
internal_value=0 0.06807964587790083 -0.0079620483519709604 0.097177154008803154 0.14646121526707306 -0.0094018769868947985 0.0085388868488190748 0.074119714021925104 0.0493422806179395 0.17536014491928342 0.038862783811966992 0.060627492525486305 0.021760826868213845 0.058053816735774089 -0.013074975747734264 0.0031496884758682748 0.015408704863290795 0.031084303156865015 0.07766920613298918 -0.017488676721421893 -0.017787034054073367 0.12265439160703295 0.090916320137654022 0.076376797830107146 -0.015627283975845195 0.2451016866769482 0.031574597465848744 0.028139967825027961 -0.0021448263001468768 0.023525968894534326
internal_count=392937 41143 351794 25269 8054 345889 58781 17215 11411 6649 10724 7944 15874 6039 287108 54530 32991 22944 4251 199394 199089 2534 2041 5905 21539 2102 5410 5372 3557 2861
shrinkage=0.05
has_categorical=0


Tree=29
num_leaves=31
split_feature=38 38 27 6 6 7 35 37 1 1 27 7 3 7 3 0 1 7 6 7 1 1 3 13 13 27 12 27 0 1
split_gain=192.22605038120133 50.044510624889824 40.541646317971761 25.915097690052875 28.727799380007525 18.752672791289186 18.050179204810753 17.366070738531668 15.020470252163364 17.187429289557087 12.557909806908379 11.947645778603011 11.411153907784099 15.066930445965749 10.911478606981809 10.778430081310161 10.415659510801436 10.252076901306626 9.8113191449411303 8.8934145523942263 8.8507332429164407 9.8409606583780871 8.3904965011338373 14.580650165078337 17.688107306513672 12.481413999304429 11.125324160350473 9.5973912398272319 8.9639109823815559 8.2883753418352697
threshold=-9.9999996826552254e-21 9.9999996826552254e-21 3.5 0.84166666666666667 0.68333333333333335 36.5 0.57738095238095233 1.5 19.5 23.5 6.5 8147 40 1544 7.5 9.9999996826552254e-21 13.5 2658.5 0.84166666666666667 2942 19.5 25.5 15 0.098339991734398682 0.073972904020409957 19.5 0.15596931137724551 40.5 8.5 19.5
decision_type=0 0 0 0 0 0 0 0 0 0 0 0 0 0 0 0 0 0 0 0 0 0 0 0 0 0 0 0 0 0
default_value=0 -9.9999996826552254e-21 0 0 0 0 1.7976931348623157e+308 0 0 0 0 0 1.7976931348623157e+308 0 0 0 0 0 0 0 0 0 0 1.7976931348623157e+308 0 0 1.7976931348623157e+308 0 1.7976931348623157e+308 0
left_child=2 3 7 4 -2 -5 -7 14 16 -10 -3 17 13 22 -1 29 -6 18 20 -19 -4 -22 25 24 27 26 -8 -24 -25 -9
right_child=1 10 11 5 8 6 12 15 9 -11 -12 -13 -14 -15 -16 -17 -18 19 -20 -21 21 -23 23 28 -26 -27 -28 -29 -30 -31
leaf_parent=14 4 10 20 5 16 6 26 29 9 9 10 11 12 13 14 15 16 19 18 19 21 21 27 28 24 25 26 27 28 29
leaf_value=0.0014027100822669267 0.00046076777354678224 0.00044828957681876592 0.0018464695603017834 0.0058345951826705104 0.0078334637378096855 0.01118916160917293 -0.0030509712574916469 -6.7161661766213784e-05 0.012180264020959536 0.0054882695250307997 0.0044123856380975995 0.0078575401358562252 -0.00073229254465344675 0.011129239440567233 -0.00081635739180399526 -0.00047789743860296094 0.00091263874878821103 -0.0035411535112053472 0.0016235188031097992 0.0016428482170444897 0.0091507901590742388 -0.0014519321979605594 0.0020598186348924543 0.0065199475983778636 0.014796906016073428 -0.006171852094240678 0.0094063477464027007 0.021233080772321618 -0.0020635035984826926 0.0010747984913275167
leaf_count=5693 1405 13530 1069 5804 1331 549 214 35985 2985 1414 2344 961 2991 519 205660 64309 919 1239 4171 2490 1508 256 2525 345 333 195 1103 67 2570 28453
internal_value=0 0.064675663864378174 -0.0075639460177571198 0.092318296733979885 0.13913815539595742 0.07041372852813807 0.046875166752037851 -0.0095545492504614648 0.16659213853547547 0.20058422919280638 0.020672785573968348 0.050329346221232793 0.037933670902116107 0.057914022787441795 -0.015131692732070426 -0.00039902713135578924 0.10013382440143162 0.04076487965153635 0.063316018860478662 -0.0015918323408026067 0.10872977675374977 0.1522414616463271 0.046289413488420361 0.029100020005278393 0.078981389184283393 0.11268230895240786 0.14764303288047026 0.051108475809020025 -0.020952468793551671 0.0087415590412752188
internal_count=392937 41143 351794 25269 8054 17215 11411 340100 6649 4399 15874 11694 10862 7871 211353 128747 2250 10733 7004 3729 2833 1764 7352 5840 2925 1512 1317 2592 2915 64438
shrinkage=0.05
has_categorical=0


Tree=30
num_leaves=31
split_feature=38 38 32 6 6 34 8 13 3 1 1 40 8 8 3 37 35 12 13 1 3 13 8 13 6 1 37 12 1 1
split_gain=173.48400790287877 45.165169916499906 37.06924043311399 23.388375809890391 25.926839044365238 19.630762650116907 17.655207956548022 16.565838697027118 13.752141836312838 13.555974587378103 15.687439355260551 13.331083527506323 11.721307092881638 11.631646718975839 14.222495829580671 11.169233469541016 10.999751150757589 10.961330938021959 10.204031210300789 9.4001331545667703 9.3220980142044709 9.2797293491283668 9.3779217166579993 9.0639734007169288 8.9799779471690826 11.257927548632686 8.9517959857008691 8.8853127191722479 8.0974049946823232 10.082995436783301
threshold=-9.9999996826552254e-21 9.9999996826552254e-21 0.56349206349206349 0.84166666666666667 0.68333333333333335 0.76696832579185514 337.5 0.20191082802547772 40 19.5 24.5 1.5 59.5 39.5 40 7.5 0.85960591133004915 0.086845607808340719 0.10225715830599294 13.5 40 0.11065083310319433 337.5 0.069737787237968474 0.84166666666666667 19.5 17.5 0.30384615384615388 9.5 25.5
decision_type=0 0 0 0 0 0 0 0 0 0 0 0 0 0 0 0 0 0 0 0 0 0 0 0 0 0 0 0 0 0
default_value=0 -9.9999996826552254e-21 0 0 0 0 0 0 0 0 0 0 0 0 0 0 0 1.7976931348623157e+308 1.7976931348623157e+308 0 1.7976931348623157e+308 1.7976931348623157e+308 0 0 0 0 0 1.7976931348623157e+308 0 0
left_child=2 3 5 4 -2 17 13 8 11 19 27 16 28 14 -7 -14 26 -1 -19 -6 -8 -20 -23 -15 25 -4 -5 -11 -3 -30
